100 100
2.786563094116524253e-01 9.603486816509099189e-02 9.028097331159201655e-02 1.334426962498698188e-01 4.545993996515935720e-01 2.027215207896503335e-01 2.316026898370299181e-01 7.098865886865790564e-01 8.261922573568136752e-02 4.912485576022762590e-01 7.772922129368605715e-01 9.444813764126185340e-01 4.465160998394409608e-01 7.012876964270121638e-01 7.318906405574890917e-01 4.313350293587147055e-01 7.081503804963787951e-01 9.841178970712579632e-01 6.875899699863580183e-01 1.334946850464445722e-01 7.898142242733209306e-01 6.227763957466815326e-01 7.728487621229463977e-01 8.937082011397586845e-01 4.836256034778629864e-02 6.327376058022871064e-02 6.007831485404894201e-01 2.826129954390871335e-01 1.329829507993229853e-01 2.708982684110037287e-01 8.930249148452465979e-01 9.442949675548708566e-01 2.530987659888009889e-01 7.997058102903508159e-01 4.942145118320456776e-01 9.369413793254740552e-01 7.783687338406148903e-01 6.378768865060724380e-04 4.621090532985056010e-01 7.766663703632346039e-01 2.964063621352878153e-01 2.849969415262694206e-01 3.587512266437545838e-01 4.355118353679718890e-01 8.069790981720792455e-02 8.551258899017328829e-01 9.248544128811373444e-01 4.078936118189316895e-01 2.777683946958370287e-01 9.764045473171900635e-01 9.778001815922569007e-01 8.804485680871250164e-01 4.658211598731406555e-01 5.955295758457331834e-01 1.697932406116897663e-01 8.316260269769996105e-01 9.920290520663677114e-01 8.199856517476666884e-02 9.400118392016016955e-01 1.247295324456704213e-01 6.239207152615635632e-01 1.450270865384007957e-01 7.534964433236932546e-01 6.234539658406661466e-01 6.726886987755843483e-01 6.755678770389709209e-01 2.286408143787722613e-01 1.763693627572215927e-01 1.598208324500750566e-01 1.155426414646042454e-01 3.687805339906682356e-01 7.238365095283102457e-01 9.175706247744083166e-01 8.931900330514919162e-01 6.196129103502689972e-01 5.435235267668636627e-02 5.193544672159774445e-01 6.719140168806615465e-01 9.563259689265898311e-01 2.454029021521367815e-01 5.223401190909400249e-01 5.550067520477214300e-01 4.696609883138922470e-01 8.696370347199230411e-01 6.374150414596904124e-01 6.533792893040407668e-01 2.423362045927497377e-01 5.204389692823758740e-01 7.149823661604701730e-01 3.752040208218139217e-01 2.789590231872766113e-01 6.552554224884179490e-01 2.996918091695365272e-01 6.677486669663492691e-01 5.115506851813768074e-01 8.608333008395568919e-01 2.354240142071161168e-01 9.257118330054892041e-01 7.443742312136832906e-01 1.838887273607392459e-01 1.200431133433770281e-01
1.934971352708826364e-01 7.198890148565451064e-02 6.159122505156537919e-01 1.859845355987777005e-01 4.807060611710330944e-01 4.856948621630989837e-01 6.633747295402246946e-01 9.093434592454844312e-01 7.671484401240563633e-01 1.221149456168635350e-01 1.379056930896022104e-01 2.116639158546755883e-01 6.047571193961357450e-01 2.001246080675960215e-01 6.299213398042774470e-01 9.406722876569908465e-01 6.314927460823257510e-01 5.723654441777838997e-01 5.499303906144078491e-01 4.731567286141703521e-01 7.754293153287935558e-01 8.410300830715633502e-02 7.382466193039487479e-01 9.140140840408436107e-01 2.310120492017950777e-01 8.073003777203213716e-03 9.149425160988261529e-01 3.545903991879379991e-01 4.616034347510022950e-01 1.172129609407002171e-02 4.365732774773963820e-01 9.009283085720417583e-01 9.248189312986728750e-01 2.000608100668406220e-01 6.214320199017530078e-01 9.244298574555925851e-01 7.009359855391008587e-01 1.549022414139684667e-01 3.838082954727947138e-01 1.789160107461870153e-01 9.517541909856968019e-01 2.309893513306671142e-02 2.642531070106513003e-01 2.830697757994201647e-01 4.966553110911815505e-01 8.914601380260679386e-01 3.782628989892808935e-01 2.018929984949593415e-01 6.290064490723672463e-01 3.623152283089128289e-01 1.313607843419948296e-01 2.576312935603630727e-02 6.592669383104534653e-01 5.587478478976692919e-01 8.004943641580615221e-01 3.285159775678445637e-01 8.064780208520841986e-01 6.611961218974085064e-01 9.631822515461356815e-01 6.545871577612113468e-01 7.413376370740554222e-02 8.451482761214624828e-01 7.400296063221296627e-01 6.188477969710846072e-01 2.604643723617379170e-01 2.401473307370521892e-01 4.400384256343030653e-01 8.696888631336844311e-01 3.729178465830317313e-01 8.197454889727662231e-02 9.398843155356200185e-01 9.030785774133812671e-01 8.518193974937013913e-01 1.375235812535774427e-01 6.309981091395606700e-01 2.527791526816277612e-01 5.980561778794678540e-01 1.661315601973414324e-01 3.156633264148966944e-02 8.776730083969987994e-01 6.571970390983740140e-01 4.334729606504250654e-02 6.490764374898772004e-01 1.675575464512912838e-02 6.824850259003553132e-01 5.630435174077296212e-01 6.482161494864950857e-01 6.395683062066948033e-03 5.851169101580184773e-01 2.064504550390829918e-01 2.000002053143590253e-01 8.441337087536272543e-01 2.915950035829812936e-01 1.840876473382627720e-01 7.933244949648516897e-01 6.591468875625325907e-01 5.452183706020493625e-01 6.592260458447373184e-01 7.201009249401015833e-01 1.798417578463249455e-01 1.611016377218963402e-01
9.860387796517794401e-01 7.627167001337908925e-01 8.039112170420459336e-01 6.145011542231038071e-01 2.960337310231216934e-01 5.423351462231468245e-01 9.859216110564135160e-01 3.899330869246183662e-01 8.246337391999812860e-01 4.596088709188209664e-01 2.697890555300216375e-01 9.653075232730633504e-01 8.576774302169716258e-01 6.673592633810753183e-01 5.109546883275861706e-01 3.432001582609806034e-01 4.228567241820702094e-02 6.731455376462187612e-01 6.136069334356053506e-02 3.361306915862833922e-01 1.089601124533235987e-01 7.299131707291051097e-01 4.175776719907381418e-01 4.758439053151052311e-01 1.894046951187950967e-01 4.692835431263764345e-01 8.701207392851196820e-01 7.265770211108745213e-01 8.136085251028243315e-01 1.029402940268788758e-01 8.177625691052946566e-01 5.851013826876020341e-01 1.377912102147229589e-01 3.360442861252344038e-02 1.790769681449255746e-02 4.842719870696839957e-01 4.919022303616936709e-01 4.938211233671774281e-03 8.797545883248187870e-01 1.649853227256373733e-01 5.137796144843514989e-01 4.636234014741236198e-02 7.044192320589881540e-02 4.949985359991959655e-01 1.290127673117840157e-01 9.283278417227713852e-02 3.782336708456449648e-01 8.882399719218843082e-01 3.515321761678050771e-01 3.599490721864806453e-02 8.713458096518406082e-01 2.878705266955661202e-01 9.185191229019242787e-01 5.925136845912000183e-01 6.197272019738060411e-01 5.100683229809673813e-01 2.888670638484895914e-01 8.770647589952840217e-01 3.863378272261667190e-01 3.038232302894247061e-01 7.555209019954447491e-01 9.269319675184350960e-01 9.725012464527383882e-01 1.193431967604364763e-01 1.661640447837098300e-02 1.976027609654659178e-01 5.273367266138384579e-02 2.783534744327047505e-01 1.070075810310231468e-01 8.925338713752527520e-01 8.213618671730458232e-01 4.467803755469234028e-01 5.224074009278083519e-01 5.384140897197460252e-01 9.055524220746397068e-01 8.166464254827006108e-01 7.497745962159158006e-01 1.281714597423722068e-02 5.150979556364786438e-01 6.065087262722057559e-02 9.837118064151750829e-02 1.691504173607001338e-01 5.165127594773611941e-01 8.073370357158323740e-01 1.843493593144811538e-01 6.161141378107698463e-01 8.602029079324735594e-02 5.176589886844396027e-01 7.989761335288282362e-01 1.730679128976949643e-01 6.063007690147097506e-01 8.945994199690345816e-01 8.292973636729514819e-01 4.120654387630026116e-01 1.811645060778176441e-01 7.411949286101731094e-01 1.347309361207125189e-01 4.965794426982725884e-01 1.116007279162593013e-01 1.424753205725157734e-01 3.819892714575271464e-01
2.789858060946313056e-01 4.357803722783796241e-01 6.960140044726010888e-01 5.800444841359245762e-01 1.459686741272828714e-01 1.922168063708552532e-01 8.355882372086584908e-01 8.453372939542320719e-01 7.427731546662129647e-01 1.964303780492987483e-01 5.544513261133562354e-01 8.317453108753023461e-01 7.462186437107908299e-01 1.573977468447564920e-01 3.893657570172511795e-01 6.451257785642797726e-01 2.221418431010877548e-01 4.049049425126881596e-01 1.978733397941319083e-01 2.619826854000183447e-01 2.335952757608498187e-01 2.856329467171737635e-01 4.076668379503662898e-01 9.134711279124059224e-01 2.136277659608180057e-01 2.468856392618923312e-02 7.806305072861788874e-01 8.185712323567176929e-01 3.360677029181269315e-02 7.236891799020095384e-03 7.650984314933961805e-01 2.118902349485216607e-01 7.922623164430940834e-01 9.146412514830313256e-01 4.789634609071390381e-01 7.773653755571096058e-01 4.651118885215959065e-01 8.749418689140565641e-01 5.197161244760323262e-01 6.510749235012078806e-01 7.123310170601494518e-01 9.850354842836507308e-01 3.377142977464417939e-01 8.328617746287465540e-01 1.542263133390396890e-01 8.854955590872088944e-01 5.354636262975462913e-01 4.655835899121985033e-01 5.001913995091250564e-01 4.271413205459630991e-01 9.179387735009690852e-01 6.555461453036678376e-01 7.334624259647184452e-01 2.419215595536765573e-01 2.562724201194802598e-01 8.053308429918283329e-01 8.575751177949569870e-01 7.979403104180047279e-01 8.489247873408966027e-01 7.164464816874741571e-01 2.235220351618323331e-01 3.548779849134814368e-01 5.295940493702000484e-02 5.180844018473760304e-01 2.172435050015426583e-01 1.906344756726868761e-01 7.465189445413907832e-01 7.840518617961629300e-01 8.210878953028704075e-01 9.865794378762068328e-01 9.849383979507689846e-01 2.642043193771779208e-01 8.686827577863022176e-01 2.838104890457776586e-01 3.974581531080235708e-01 9.738307444666207680e-01 4.653618137490314055e-01 3.799733195114850526e-01 6.267393999158563656e-01 4.673690661045258876e-01 4.926486979091062590e-01 3.369101117474794238e-01 2.786189644319481129e-02 3.081297898776107491e-01 5.508531041664082029e-01 1.411027137106197760e-01 8.267421898646611922e-01 1.753562971339116539e-01 1.252653803435604951e-01 3.067656821602658956e-01 1.723083906636228013e-01 5.773913817545373028e-01 3.093986199820319971e-01 3.870454253604381778e-01 1.487700062199948103e-02 8.733396178203889360e-02 8.369636122774415377e-03 2.009729158166022600e-01 7.094255948910986875e-01 2.123936540877930934e-01 8.748067277825026800e-01
3.085420055393213179e-01 1.381320335654978582e-02 9.313790726973852907e-01 9.014093687871381766e-01 4.757451948627583471e-01 1.900798303206945317e-01 7.322889704000953293e-01 1.197616565769119568e-01 9.165336308010517685e-01 1.666142798051835072e-01 9.422147232999029676e-01 6.023280280031702016e-01 6.645439848772677349e-01 8.047353733727126146e-01 3.941933628267272338e-01 6.931885853203993975e-01 5.788390446110750487e-01 7.905895734559422738e-01 6.697188759840466687e-02 9.783759577100036298e-01 7.511041271601412994e-01 6.072578963001401542e-01 4.722438587254809139e-01 3.017512528662458227e-01 7.308643604018094653e-01 2.645291475336389864e-01 3.239910357849457023e-01 3.606706510658730380e-01 7.567023132884442838e-01 2.449816882672501972e-01 8.824824782512473709e-01 8.223699351571454041e-01 4.961007226326349384e-01 1.890485923312914540e-01 7.674109007422345030e-01 1.023878859165734401e-01 1.645234236076537071e-01 3.470358942225576504e-01 2.213497164339836010e-01 3.610150855485203536e-01 7.758748547705153209e-01 8.680744518033768342e-01 2.388391201868844682e-02 8.476985324497876562e-02 3.489107293850035596e-01 6.119436322971441022e-01 4.100243670224228421e-01 2.949814486887005760e-01 5.989039829599861475e-01 2.145652625571211614e-01 6.008544346099710109e-01 5.971664235169432677e-01 1.144242903848239346e-01 6.818118131885512190e-01 6.528116886739447899e-01 6.270245764830929547e-01 1.255887722882810253e-01 4.568067130626100036e-01 7.050142702052285548e-01 4.737129775740728244e-01 3.362763765149108242e-01 6.998861640365451331e-01 7.433368184052782102e-01 8.326826775747724341e-01 3.023711510309524675e-01 2.005323565619382409e-01 6.083477295272621266e-01 2.180081841677238286e-01 1.806293237249168016e-01 9.172865625037507353e-02 5.118791470284709266e-01 6.505627602026105016e-01 3.459650483726350867e-02 5.895988187707570383e-01 3.208253043670979965e-01 7.027910330028802610e-01 1.073044621418280942e-01 9.645507295284605487e-01 5.583916091522872494e-01 7.117243964690979086e-01 4.990149230114430123e-01 9.575579158670428637e-01 2.229299502105142050e-02 7.895318155281405570e-02 2.587406537215555247e-01 1.896528467116831429e-02 2.415156678472407670e-01 4.127168840771074931e-01 7.002089526141546116e-01 3.419993001854543246e-01 1.451434145745663651e-01 7.360220391822175356e-01 1.184183950259922735e-01 9.816203991998149192e-01 1.477760314769787087e-01 8.227623419320871934e-01 7.604236537522564010e-01 9.561413475814086738e-01 7.542755303242798526e-02 2.251924067837676180e-01 4.484413637709867562e-01
8.083844889011168044e-01 5.519792438840129822e-01 6.600469879052194289e-01 7.325789429699175459e-01 3.008799019590536750e-01 7.866163672000245910e-01 2.489558201696258077e-01 4.293088790056189819e-01 1.113253051726578180e-01 8.035129332990149642e-01 3.942133621351754380e-01 3.413414849803940720e-01 6.745610834914428366e-03 9.717559540793976325e-01 6.329268851910979654e-01 5.458631917874630091e-01 7.697250673201276872e-01 6.470808522149533726e-01 1.429714653789960765e-01 4.627046301574022635e-02 1.571122394107297149e-01 2.505337997521425164e-01 6.694691963571437476e-01 8.113664900835196869e-01 5.010973821985795773e-01 8.062643300566154636e-01 8.591666536644306795e-01 4.104730038855399776e-01 5.597386381134694666e-02 3.835139627386972005e-01 4.803678480556092811e-01 1.057200469733808879e-01 8.836058902237113877e-01 1.058049772998089777e-01 7.305425583082147956e-02 4.982857286910965522e-01 5.898349187624218892e-02 1.954272711160160991e-01 4.002286130039512946e-01 4.014137547028542308e-01 6.397207838699601190e-01 2.066628861897454872e-01 5.485938166851526132e-01 9.428512931241281869e-01 1.488234854726770973e-01 8.168578125767091969e-01 4.137154897871491155e-01 2.863321811414634155e-01 6.551294026368281731e-01 6.003441977369428084e-02 6.636078425885821863e-01 8.590232875824707071e-01 1.253400958637043150e-01 1.170919922575611727e-01 8.844398576028671410e-01 5.098523900781022355e-01 2.735226395224955587e-01 9.381285105712439121e-01 8.955129129919365827e-01 9.128120484277938429e-01 2.679423584406825931e-02 8.977149477644266184e-01 6.677250091726484316e-01 9.923285126143097656e-01 4.030805735505098575e-01 2.845309312652299916e-01 4.525880855239549083e-01 6.728722626463892187e-01 3.389395711340090767e-01 7.025949353467325631e-01 8.664118008876203758e-01 3.379407039565590631e-01 7.279571172630664444e-01 4.260486682840669559e-01 7.808366781639729526e-01 5.789292128940831672e-01 5.181813330132203355e-01 6.399940882354555605e-01 9.251367429412006294e-01 9.820645585426934776e-02 4.531934361150791180e-01 9.754450977824201674e-01 3.869209426170342470e-01 1.932270774613797926e-02 2.478509958191789098e-01 8.375747205161838682e-01 9.021964798028507815e-01 1.940573716880412691e-01 6.887383490948191245e-01 3.440518515486893358e-01 2.901708377166125619e-01 9.271863131365876143e-01 3.824504794346494929e-02 6.804414517157874043e-01 9.572589751973016314e-01 9.356737992301920048e-01 7.814625214769014283e-01 7.616008301635937006e-01 1.178409906035960963e-01 5.970813641081829104e-02 3.559361635247803024e-01
8.553976667317425564e-01 4.713103996491648795e-01 3.428257614892028515e-01 3.136014641917556078e-01 5.952521992504411497e-02 9.569033247997114078e-01 7.918353250364589258e-01 4.051868041340174198e-01 1.095951731104732874e-01 5.234371154280710314e-01 2.481062397393659635e-01 3.852179134752214962e-01 3.922614648179538754e-01 2.214775251772895803e-01 6.687972526494899705e-01 4.966824482477572023e-02 2.540792023813194245e-01 3.975649655147650563e-02 6.180296073821206493e-01 4.254823530197622272e-01 6.155510667621788556e-02 9.749296156279328995e-01 5.550644734491338994e-02 6.106501934688124411e-01 6.118182589776194336e-01 1.471209388216787595e-02 8.540989775495778646e-01 1.332943540070253841e-01 4.670796841879729655e-01 4.984339303585998415e-01 6.433525925089734754e-01 6.115195857243926891e-01 9.653648115959768683e-01 8.660381114704998051e-01 7.992036706428525816e-01 8.877678248408601425e-01 9.830059810798363884e-01 6.942612409838233578e-02 7.237128199632780756e-01 9.265348326715011629e-01 4.721670348996616084e-01 6.456267976321203861e-01 1.424270937139571203e-01 7.018253314919740138e-01 1.992512459405177960e-01 5.116964445103935333e-01 9.261650592455374920e-01 1.054532539908982214e-01 2.931720371708468331e-01 3.760955662083740325e-01 3.370319293897827695e-02 9.247568207329803780e-02 5.100878810045044176e-01 5.229102781656759236e-01 4.270815693036260630e-01 2.112780706794578078e-01 3.720256385757579887e-01 2.242640282785501871e-02 2.785617004230963589e-01 1.577598096459006394e-01 3.512721546902431990e-01 3.723992492322603098e-01 5.359052677454019253e-01 5.428128875331532655e-01 1.682253647596132495e-01 7.346087679859489850e-01 1.622493808738687537e-01 7.003020470087830684e-01 2.346325140311681379e-01 4.299003547818516235e-01 6.638682207249169132e-03 4.695876722808700610e-02 1.168048572793948248e-01 9.967725143465789861e-01 6.942512390433719371e-02 8.609005974410235407e-01 1.053626659377072672e-01 9.708643851128773150e-01 8.810307735620608316e-01 3.876881194993512247e-01 5.021685806692423037e-01 6.027366574067931637e-01 7.970190234401175466e-02 2.652430612846432556e-01 3.709702684324892585e-01 2.849264298741098766e-01 6.654466418984746889e-01 6.903619527654333288e-01 8.875332676740950166e-01 8.747731466572075121e-01 8.176069663636594820e-01 6.267029764381235601e-01 9.066934461591078520e-01 6.261188774895924958e-01 3.146704923613992122e-01 4.151241526793403303e-01 8.081922101663063795e-02 5.054690349936422633e-01 9.984794868431063897e-01 5.092486023349891422e-01 9.877657892812380380e-01
6.995753405880954512e-01 8.319960120601543885e-01 2.519014669093905257e-01 3.091576749161841775e-01 5.368431331910449300e-01 9.943585312638841822e-01 3.261007540280215222e-01 3.564102482812993022e-01 6.399889608554513165e-01 4.543420694637684276e-01 8.766965102792607656e-01 2.054858014032361346e-01 5.494747041212616478e-01 9.225762107140960122e-01 7.858415963221619949e-01 2.449084314751649449e-01 2.249908360109943439e-01 8.237869124973616897e-01 5.163938707696190678e-01 8.666461384159370729e-01 8.742280726625962783e-01 8.478710721854433308e-01 6.422312042096167684e-02 2.134715194012071215e-01 9.723982001512969653e-01 1.438296466196820056e-02 5.134349656806939111e-01 4.093941652145534071e-01 3.293357404399722688e-01 6.641010664129630703e-01 1.774416829917018212e-01 4.186619658066248473e-01 6.553634592729038477e-01 6.647646341101400846e-01 3.169434395572945373e-02 3.606556575122022990e-01 1.894002298994733602e-01 5.091751869511883521e-01 3.240921202412080371e-01 8.919413351838749726e-01 2.398749661257333354e-01 9.027614273113911958e-01 6.542979594165646562e-01 3.573099518239031269e-03 5.422940765741184332e-01 7.922034650487367324e-01 6.201106866001674378e-01 5.618456591952063484e-01 1.623283240464946653e-01 8.173146034204543664e-01 5.964362440522996689e-01 1.771303147726808191e-01 1.362002348705305677e-01 1.691776634838406679e-01 1.578262916089181456e-01 5.615527932078601125e-02 6.176647477076324666e-02 4.813136442386960479e-01 3.936911682176144067e-01 4.206154080660376993e-01 4.559998510401239713e-01 6.967623437064736081e-01 6.128704787279077859e-01 8.124188939003861298e-01 8.000241046279521484e-01 5.695888192939795314e-01 9.469986374815265728e-01 1.046696372227641225e-01 7.237885883327166425e-01 7.352453501926200508e-01 3.943210648900719040e-01 5.208424426695852372e-01 2.772106020158138229e-02 8.696375387943742208e-01 5.347262841446700499e-01 8.223859990301876088e-01 6.552839585494860675e-01 9.631537884456068399e-01 1.611886631974590589e-02 3.318011429885846519e-01 5.604836522687467459e-01 9.153757876007982963e-01 6.360013275256434229e-01 8.072509911330076893e-01 1.206134877618013634e-01 8.993512113005543984e-01 1.357135085157821219e-01 2.728634400209420940e-01 7.260657336311744370e-01 4.560033968304042507e-01 9.672740482841514220e-01 2.971552967738696482e-01 4.167427708431705735e-01 4.187883614499665619e-01 7.526241485834640477e-01 7.354472364784414573e-01 6.355962978601165103e-01 5.041725613847078957e-01 1.014548102989638600e-01 5.028005398954780159e-01 3.977403499655242092e-01
4.509872938068701931e-01 7.522525117165519415e-01 3.163136422883330301e-01 1.897248519049995474e-01 9.179469546058232066e-01 4.692532554458572758e-02 7.001218664994574015e-01 3.435451677665622983e-01 3.936060815941917479e-01 2.678451476316537905e-01 6.065042466634992246e-01 8.981961292341030800e-01 5.351747571410921944e-01 9.511628224226204020e-01 2.139256751500504539e-01 3.575233597627692772e-01 9.900769568213263483e-01 6.796981544562518129e-01 7.859072179836930072e-01 5.805331778925149067e-01 4.166170692963601097e-01 1.598633473298832763e-01 9.267839943232718536e-01 6.668613774568671326e-01 2.404684792682147965e-01 4.823828360144393201e-01 6.290287408565916616e-01 9.414440644640087452e-01 9.776578925042032076e-01 5.841714246049073411e-01 5.167775613223514197e-01 7.465489159930238650e-01 7.054675946444408652e-01 1.937438873489970570e-01 8.017157196068158687e-02 4.151441500888986003e-01 6.107762648991066357e-02 8.020692919757972383e-01 1.536201333060149832e-01 1.995683659094084073e-01 1.222187856590829513e-01 4.845830641373511938e-01 3.055208705385890067e-01 4.393929030486098952e-02 6.108049360976061104e-01 3.793849994641893542e-01 5.060258601950349266e-01 7.914272650017799560e-01 3.113741806281086211e-01 3.857572189350974012e-01 2.153708406905541217e-02 2.816385206079285997e-02 4.659817092682675410e-01 9.740713105662677229e-01 3.016999933075081852e-01 4.754572894740372035e-01 1.383022422040292021e-02 1.959193717880999275e-01 6.190096264197642029e-01 2.101197233256610897e-01 8.639765841861446471e-01 8.041936596434070550e-01 8.494144248961023047e-01 4.503656604473591507e-01 6.546343844415020152e-01 9.783912317850985696e-01 1.935666263436062184e-01 9.384627967687271255e-01 5.308629415917978100e-01 5.247464217706253597e-01 5.072013369126632254e-01 4.473007256508503282e-01 1.703149838721920162e-01 4.106907032416508008e-01 8.759069108591117647e-01 1.854786713845615331e-01 9.537596405901151986e-01 6.419178247853114527e-01 7.705150088203261971e-01 5.906891314279608673e-01 4.210412199958170065e-01 5.298019271843547040e-01 7.850268068939090238e-01 3.124268567530505969e-01 8.249826091328110733e-01 1.253399374482533357e-01 8.564820304259964656e-01 2.420748998168835708e-01 3.740833429429843981e-01 5.709097339117497061e-02 2.463086994547687425e-01 3.695781386356837839e-01 3.869462516185421253e-01 1.837757511274356048e-01 7.272067140376134997e-01 5.588171679660489666e-01 4.942411786934318707e-01 8.900488102908509225e-01 1.042524711718108010e-01 6.117967002125516141e-01 1.670985934592902344e-01
6.680300206970457566e-01 5.658403273201072503e-01 1.844767235152674489e-01 9.170875127061687282e-01 3.012023314820617692e-01 4.571991854328969485e-01 7.279562381605428900e-01 3.372987630009883775e-01 4.164447309018105559e-01 8.062875456846615441e-01 7.320722872829110717e-01 9.049320750376607103e-01 2.637308014794059741e-02 6.360296849951094789e-01 8.993536858607487083e-03 8.850914277080054182e-01 2.433158728261485271e-01 5.206585626333057881e-01 7.141162067008589576e-01 5.801819077935748137e-01 5.969028026200808856e-01 1.802414918250938580e-01 7.737444876767722857e-01 6.080065322854559806e-01 9.921681844994973964e-01 5.274138091710243170e-01 8.550702380943564496e-02 1.075319847138440643e-01 6.075267082321355039e-01 9.400982288016139776e-01 6.067547015212640948e-01 1.131641239570142510e-01 7.557857849438388564e-01 5.851379162561785030e-01 8.215912471754557300e-01 7.383506961964035886e-01 1.660232423059005979e-01 1.555068540673135713e-01 4.928521782045119926e-01 6.180892927643895085e-01 2.272615878771503395e-01 6.109057635118908536e-02 9.773640830197001250e-01 2.571384463742082405e-01 3.223460559396501557e-01 6.806670453525528464e-01 9.555244622016095812e-01 8.183555975720514519e-01 1.196562177567618290e-01 4.223910645760209359e-01 3.452679643589924297e-01 5.764110531457788955e-01 9.687263950395486045e-01 5.919201334081536370e-02 5.878078453282499227e-01 9.820402590147514488e-01 4.503449619602349907e-01 3.008132427125326247e-01 6.036726286460625257e-02 5.250991817998407196e-02 7.263306452202143992e-01 9.203184795412843178e-01 5.458985985839692745e-02 2.689014745549700436e-01 1.106136242231774425e-01 1.552631131071634529e-01 6.108224236362347348e-01 1.041323735765020686e-01 7.034104861561416566e-01 8.638742272541544143e-02 8.450999432438730530e-01 6.058428588121176350e-01 1.533340955991853161e-01 8.358304624840435793e-01 1.542091878244108427e-01 6.732026758924442023e-01 6.193619851390924635e-01 3.180143665583755608e-01 9.762966991828303520e-01 6.819732192485161715e-02 5.479410558810315912e-01 6.367379515389478550e-01 5.325068204570848618e-02 5.981551527007155089e-01 6.662508633383198431e-01 1.788829680908645692e-01 4.410540865536157762e-01 3.868655120515792634e-01 2.541221224992876726e-01 8.589219085465195080e-01 7.485684671825766356e-01 2.030882620549425699e-01 4.586382846430531179e-01 3.326753853757989932e-01 3.438843868517544866e-01 7.185801176516359856e-02 6.580718306433052112e-01 8.577503293880274216e-01 1.352130563818928488e-01 4.603930164805655201e-01 9.415979657614925724e-01
2.264619645226949585e-01 5.025964158042148799e-01 5.535874880255219344e-01 5.870291182828171195e-01 8.516008538466239841e-01 9.546702123939522222e-01 4.404603466003853551e-01 5.524738148444534591e-01 4.531168895633410632e-01 2.419557954227735674e-01 9.577995670706160869e-01 5.667478941840384810e-01 9.314090525168770007e-01 7.038227042230775776e-01 9.265694674483484494e-01 8.361837855842052525e-01 4.592392748609318565e-01 9.459978494440911545e-01 6.610932708095915711e-01 2.323954156309473440e-01 9.271741728055331588e-01 1.430707238643396106e-01 1.423489191107931706e-01 6.726075721742973412e-01 6.928534801515331409e-01 9.463994385975965651e-01 7.065674627347544590e-01 2.249500484250506194e-01 6.966686568513672517e-01 2.625286546764372675e-01 3.668763365868232817e-02 5.947228612655096613e-01 8.418163215558082113e-01 2.406570795907508886e-01 7.006650992442966519e-01 8.643586837894674524e-01 1.635632982406687308e-02 8.479800947310889292e-02 2.423592769239972800e-01 3.921072872261244235e-02 2.020434254951082309e-01 1.095426512223601767e-01 2.983515841603906482e-01 7.121111183167437853e-01 5.111350332472628377e-01 7.015276547776648775e-01 2.494521866055491310e-01 8.848034157123046972e-01 3.362512710531007087e-02 9.152256397588265369e-02 8.304333733051241229e-01 9.419032547049376314e-01 8.947508317416988932e-01 6.698122649316120558e-01 5.118370806025293041e-01 3.821280364702959176e-01 6.144977135660323331e-02 8.516829755117930612e-01 2.949318160816691847e-01 3.001722904441239681e-01 9.025849354089776622e-02 6.483534817739993183e-01 9.561108776822022648e-01 5.203541055408367200e-02 9.902419286955240763e-01 5.368334122005803399e-01 8.470519301411120194e-01 6.928918157483321405e-01 4.749943572955106497e-01 4.716679094500975111e-01 2.639078885366487048e-01 6.802216812358061748e-01 9.608994842954881044e-01 9.447085474578690301e-01 5.130785523986218788e-01 2.950188230659148703e-01 9.038560991172758241e-01 3.022283495629818351e-01 1.537434060554565551e-01 8.032510799658818534e-01 1.141382792499844312e-01 5.355806749186486915e-01 4.151054367394705347e-01 8.844427353299049166e-01 1.503748980077679320e-02 7.009263245376510243e-01 6.430671857613801112e-01 1.663510317176114528e-01 3.318323027607922304e-01 9.417087881356533963e-01 4.001131762966346761e-01 5.358702716378394015e-02 8.785253051116558298e-01 5.249244125720491372e-01 1.610648122424690465e-01 5.311015619051938641e-01 2.133634272346781602e-01 3.353014117499213409e-01 4.630948595416515268e-01 2.011282604260945517e-01 5.841900592864066599e-01
5.302768766564850411e-01 9.103054586586895036e-01 6.123893252007066579e-01 8.258638861171099244e-01 5.225720242330019749e-01 9.979558529700817138e-01 5.612696281826883293e-01 2.495199035100122975e-01 8.703293377969910649e-01 8.167400716881578759e-02 3.804670165432300077e-02 1.501064384246589833e-01 3.157527256342723687e-01 7.119335404068050099e-02 6.317164131517249981e-01 7.243309987938990613e-01 8.402839560126976748e-01 4.214191889991524276e-01 4.966347948086570208e-01 9.890949487102687065e-01 5.951075549964837119e-01 9.176814490831793902e-01 1.300193794160970917e-01 9.584012440600514493e-01 2.731240990208025909e-01 3.059014831473727547e-01 2.482339397442174800e-01 6.607856287602524858e-01 7.005752071952687787e-01 9.277211327522650874e-01 7.527705967510736063e-01 8.247747088415813277e-02 6.582485063176893858e-01 3.859176435774173131e-01 8.222931647805471478e-01 5.636362043784649556e-01 8.094054563140954395e-01 1.167269177406892178e-01 3.737040055283487039e-01 5.154771504116983927e-01 5.145856178912243672e-01 8.216206526390125164e-01 2.031822956806089708e-01 7.486617001501589819e-01 4.864197441491242557e-01 4.204976871421206575e-01 5.250018035650891868e-01 3.572791495372062975e-01 7.177241608639460813e-01 5.094731542012209680e-02 6.396883718021992848e-01 3.301031736086311730e-01 3.007252457734165274e-01 1.193292679384382327e-01 7.611258863774753580e-01 6.977290684233791174e-01 4.451492751614309906e-01 9.187293004868277713e-01 7.791361024518483891e-01 3.387192558514662277e-01 7.750350245077135547e-01 7.529572858143674940e-01 1.378393596787984565e-01 4.856948941342213999e-01 6.732190639689248357e-01 9.885412437007868869e-01 3.555477075353625782e-01 6.961641489120964366e-01 8.593913970952644643e-01 3.752632892420058042e-01 9.438303853149504485e-01 3.155755907034479835e-01 7.663648648072343139e-01 2.766899886279260423e-01 6.401660723930815422e-01 8.911178830910808646e-01 6.537270304917075503e-02 8.028031098757985040e-01 2.061022400545728939e-01 4.000700046878256089e-01 4.812252294170068501e-01 3.396853381664763916e-01 3.008020524365039305e-01 3.290294177274755150e-01 3.097079105125760679e-01 2.264332683924186185e-01 4.863281669183397993e-01 7.948368140402959359e-01 7.375303292175305891e-01 7.175614298521685308e-01 3.409064690170959810e-02 6.281200251268961310e-01 7.344115790131672261e-01 8.914266707892755104e-01 8.214223374770078800e-01 2.892826245377911887e-01 6.644075346245441605e-01 3.305158023658786304e-01 4.871660829409711901e-01 4.294782787914176447e-01 8.366019202731680426e-01
9.784977039093097906e-01 5.684636874464186196e-01 1.747544649326682187e-01 1.387299022812036320e-01 3.151663624285149234e-01 5.234741597393629542e-01 5.963749923426003852e-01 9.241864728676556506e-01 9.961158795721529735e-01 6.751126169428300905e-01 7.471729072298320951e-01 8.726079858122622879e-01 3.942769608425343852e-01 2.441885986150474919e-01 5.372474492061918294e-01 1.297695511733595319e-01 6.058589556461146941e-01 4.817991523194414816e-01 9.004299942555363812e-01 2.273463257813331806e-01 9.276181159257967934e-01 9.080674719625132507e-01 7.381710298530890224e-01 5.494055290791840518e-01 3.303794662730833442e-01 5.758415654982255161e-01 7.751319428577689852e-01 9.756965911230491839e-01 5.052015589847030919e-01 9.430973685748847979e-01 1.497892881482413285e-01 5.337584664302411630e-01 1.458554256520820935e-01 7.651234297171849441e-03 9.897186384089189382e-01 7.172165383011819273e-01 8.045081527753661366e-01 9.998578234273292065e-02 9.824493934333263789e-01 5.240833991908043776e-01 8.826189011353826608e-01 7.379091192621899387e-01 6.067485881399947711e-01 7.874411553487220550e-01 1.632141839164080732e-01 6.135086605941778570e-01 6.591969248132717452e-01 4.566665918476943142e-01 2.429246267277179738e-01 9.236766020503353047e-01 5.929644868871570829e-01 7.619571909590264758e-01 9.757287839461376011e-01 7.100072422542735850e-02 6.074619011785694633e-01 4.144441335626437573e-01 3.940379596123486650e-01 4.865380147705401503e-01 1.344368592385414285e-02 5.177054639645739531e-01 4.508173841993292630e-01 1.921873903979378628e-01 4.560084220398866739e-01 5.284796561779190327e-01 6.215353296928005644e-02 4.771435148269117521e-01 2.072081625204422739e-01 2.153043888963876995e-01 6.280045260318969369e-01 5.651882377210621922e-01 6.432235071585146180e-02 1.259410538304372995e-02 2.127737749372575760e-01 2.555944274972563601e-01 3.353001582489278931e-02 7.812448559900484479e-01 2.373744090728691081e-01 8.224725282991529607e-01 4.493386501916523112e-01 3.475712464525370082e-01 2.040372576880958855e-01 5.429799419238607872e-01 9.013821596156108562e-01 3.868055486541916999e-01 4.748257179707047193e-01 8.751967857981585164e-01 2.387116092897632047e-01 1.815531418560866195e-01 3.126289981788183958e-01 6.384435324544969204e-01 6.969483368205509066e-01 5.598306999909682391e-01 2.057766748952305491e-02 8.903819014104363827e-02 3.207590564399409594e-01 4.675900027269034309e-01 4.759070754408549764e-01 6.955649364825092773e-01 9.128158967394655043e-01 8.731211939862064675e-01 7.276043418041299171e-01
8.853146109848136769e-01 4.558012217149147727e-01 8.715077792441753290e-01 7.720830182919971030e-01 9.961526838044075793e-01 7.361846878128487370e-01 1.701381094671158278e-01 7.384320751116466575e-01 3.496041513986211102e-01 7.941155264653321222e-02 8.203706334356852814e-01 1.452813651237117032e-02 1.750621866026735862e-02 4.282250029328726892e-01 5.750420239524369759e-01 5.743337769360057354e-01 7.098214850642956542e-01 5.527981638851616752e-01 5.467734460307409616e-01 9.007020498801218134e-01 2.810312302762363323e-02 3.726153571483227234e-01 9.845774910425247883e-01 9.514398910580192936e-01 9.797648830265975883e-01 9.136641457953829093e-01 8.939519285664232484e-02 5.024724796442673336e-01 4.342440898904149638e-01 9.958499880847757613e-01 2.548040483217561825e-01 4.510270108170284509e-01 1.137619074999971502e-01 4.405806524010652536e-01 4.494114910080881931e-01 8.902514951190981796e-01 5.528020054710980347e-03 5.727243223728509802e-01 4.972862042939368843e-01 3.107173132312796016e-01 1.023389640143691492e-01 3.514924119291588100e-01 1.342595822673721129e-01 1.759905193219469810e-01 4.797051162464432972e-01 7.648491329191124954e-01 3.225018867044878723e-01 7.863565611615473960e-01 1.382962015199322714e-01 4.869396274469470765e-01 4.363686507047228602e-01 3.291511214895892490e-02 6.995631101809370866e-01 6.954318714899627718e-01 1.833849806000760196e-01 9.185892473365742106e-01 6.979414216902638524e-01 6.214363088850016759e-01 4.215117226705099585e-01 1.631076002675322378e-01 1.461078882013508995e-01 3.848300013740908465e-01 1.493706032000737816e-01 4.152670450498521237e-01 3.687243166694498253e-01 9.477689723267165300e-01 6.777464807287485460e-01 9.710688634705789690e-01 3.374505536966706520e-01 2.924780421508927919e-01 6.239281438468445851e-01 7.655346069512471985e-01 8.874178279326677687e-01 4.543890935078744864e-01 5.640081372729808251e-01 7.470852198049824366e-01 7.045180773500239191e-01 1.676373852958781274e-01 4.581427432885342155e-01 6.774780406334623972e-01 1.507954330318572733e-01 7.513980881143085266e-01 1.609355873902785783e-01 2.618198675840527345e-01 1.055127886704425588e-01 8.153520634995574667e-01 1.374656095334874095e-01 2.847921546680015625e-01 8.011825066758774261e-01 6.558185659836873738e-01 7.327491965450438904e-01 1.681495165097348643e-01 3.474084302219648812e-02 5.331951750191114003e-01 6.171752902037992428e-01 5.281730990716402285e-01 3.074983228821979164e-01 4.592541902397226927e-01 2.099723304767373566e-01 6.774795041901371384e-02 9.939539663392014113e-01
4.186781279611272444e-01 6.392621767537642885e-01 4.190418947885323764e-01 2.932456898447228788e-01 4.254197559680942264e-01 8.414056900207489420e-01 9.038421761329776816e-01 2.611544193125494573e-01 1.733156430188366182e-01 8.100494441933314693e-02 8.201577426781476721e-01 9.677342202368977020e-01 9.304244056746171498e-01 4.219000280367034561e-01 9.400125628017584889e-01 5.541815692343320388e-01 6.628627886147873127e-01 7.730279692255335178e-01 3.886010720406785079e-02 4.327135073040174751e-01 8.003109254698743680e-01 6.575376935678238777e-01 1.688641056461843704e-01 1.636207897786975396e-01 6.417344313365377362e-01 8.162693138384572444e-01 1.233813899976435868e-01 5.486058195522237613e-01 5.823120398013282850e-01 8.214699383285262169e-01 4.917802081961685223e-01 4.586451878347065358e-01 9.978346227003123126e-01 8.989339280459972548e-01 8.453332929393539974e-01 2.462897304878283178e-01 7.567689440129218292e-01 5.838415352327804841e-01 2.342545958012500762e-01 3.078617779669667875e-01 6.456624304442324380e-01 3.256741157475562254e-01 5.475555034709295166e-01 1.040210999730856178e-01 5.982275867688136017e-01 7.467160858633706821e-01 7.023181730432560554e-01 8.670037305688554907e-01 2.121472950930718415e-01 5.832506241914039435e-01 1.503481512812687715e-01 6.417811171165760387e-01 4.053383702236249553e-01 2.861778779413722829e-01 2.541344808075524098e-01 5.870785552216714054e-01 4.895319609371868719e-01 3.186857622050686123e-01 3.266239162194684020e-02 2.410084712516811223e-01 6.105520440933321913e-01 7.530060953551215297e-01 1.108610079798958425e-01 1.828084293834471019e-01 3.577739693946069277e-01 4.801242780954046996e-01 1.427346794526553886e-01 9.954603286635108628e-01 1.968945901102860940e-01 3.210119877698202062e-01 9.542178939253320724e-01 5.696510607243191471e-01 1.798054018262971177e-01 3.291297666118412346e-01 7.664781012468434573e-01 6.401635263492631012e-01 1.206291055542763058e-01 2.133502400505458141e-01 5.532081557892858381e-01 8.279356695402726452e-01 3.285534988556917391e-01 6.339467519033314957e-01 8.714641395787438016e-01 3.789921538320674133e-01 8.152128288575417603e-01 6.377913119501610328e-01 6.764943192231821500e-01 6.212179218517994705e-01 6.623595506935053834e-02 1.181396791977531446e-01 3.400732237498335087e-01 2.296455594564910108e-01 6.519655770796832783e-01 9.791229907180053482e-01 6.953774941665165077e-01 1.647490645460267800e-01 3.363808719854382012e-01 5.165600490897614971e-02 6.392060598355157053e-01 5.467595256632791223e-01 5.183179385200510358e-01
2.118777017525449446e-01 4.069625803562609834e-01 7.484576373863517373e-01 8.736684335677215030e-01 9.718329359606092677e-01 4.349714737204624093e-02 8.339301168940297382e-01 9.168036841425689643e-01 1.673976293597615461e-01 6.579185308290561585e-01 2.458292545478011348e-01 3.558758242078710055e-01 1.336217854201300348e-01 7.594952239041656838e-01 5.617701163580897106e-01 5.447725668799592302e-01 8.688470764041045236e-01 2.828660721597597849e-01 4.671620467514354669e-01 6.891090583929116997e-01 2.227830164078844488e-01 4.607594399534892249e-01 2.037490567238001704e-01 9.028563188757414704e-01 9.677728753337933032e-02 2.838595502483862720e-01 1.140527533243229641e-01 6.385444412286165328e-01 7.136391244886949314e-01 8.037966867788501890e-01 3.502431746924919986e-01 6.365177162202266814e-01 2.308937553521057673e-01 3.586204295158463839e-01 1.599109686484611048e-01 5.012415656924835705e-01 5.977415136626724745e-01 3.678274948237494346e-01 8.676010951665606985e-01 5.949475800224760524e-01 6.092263539442410725e-01 7.116537813390669820e-01 8.100874037476946121e-02 4.542403407282940009e-01 3.285784483275044909e-02 9.987150241313955679e-01 2.410838207675312095e-01 5.606436571160285931e-01 1.975968904553915273e-01 6.949816558939104771e-01 5.204441299890631978e-01 4.631185917362403703e-01 5.184244215666237166e-01 2.484146408295145880e-01 1.789278169314395539e-01 1.170755767456641561e-01 9.676125515734169680e-01 7.393619532732318422e-01 6.589692102044478750e-01 7.113188797875676928e-01 8.021278353990151100e-01 7.191001063875522847e-01 9.082005771645197401e-01 7.430170469909315178e-01 1.778044172589809957e-01 4.978754694354657895e-01 9.032587297696039741e-01 2.876938254865391009e-01 2.878277390582749673e-01 1.520828910393557942e-01 9.463221675989794690e-01 4.979105356465504117e-01 2.289732826396289056e-01 7.640598850927574626e-01 8.377743823808667667e-01 9.227557311604918100e-01 6.937138492338608131e-01 2.820511920765428338e-01 1.198277633748570103e-01 5.555780439947417548e-01 4.224878314215918529e-03 4.028696639300676230e-01 1.826555866792807237e-01 3.527084910609515900e-01 3.477549810903477479e-01 4.643474521608860206e-01 6.484757138104719765e-01 2.331152653401198371e-01 8.541401339392250547e-01 8.606358808806477967e-01 3.999975262849368995e-01 6.023457425960399014e-01 3.545806772014565844e-01 5.820913654331015818e-01 5.660964055720174581e-01 8.763880353085397035e-01 2.763316851430719367e-02 4.867063755524763113e-01 9.203093773354722451e-01 7.396657491478947355e-01 3.774514167893161520e-02
7.104618614697173484e-01 8.405594954267815444e-01 1.341005390790551699e-01 7.393566149336971982e-02 5.824685495080074160e-01 8.998632001241848588e-01 6.143331995416512203e-01 8.152523249895722302e-01 9.811394067817913456e-02 1.144687564771330601e-01 4.480900248628956195e-01 2.829680218905905598e-02 2.649411427555831144e-01 1.575733291917761347e-01 6.315953412871836425e-01 1.999490033203096262e-01 1.020415830748823138e-01 3.421404252196861284e-01 4.797457800582282106e-01 8.929313086989346671e-01 8.200595734697333494e-01 4.539960523944281956e-01 8.394929768606140819e-02 6.000331039595008242e-02 1.237901483065995123e-02 7.229892158055951645e-01 4.963143904782993943e-01 4.936221483483909100e-01 6.840402507050015180e-01 9.705664872629279349e-01 6.332991881451562888e-01 1.278640643595624349e-01 8.339727951363443692e-01 8.317901577064856777e-01 2.106630640218756234e-01 9.401336072160079160e-01 2.531566523309366490e-01 8.731972568843496818e-01 9.818650599040846805e-01 9.839829289317555405e-01 2.365632088428067936e-01 1.598315982009057556e-02 2.665793131634931479e-01 6.690281863743035018e-01 2.937209128533744273e-01 8.786277807471309931e-01 6.257012459213762146e-02 5.221109781679337258e-01 9.829762204079867116e-01 8.441150334633077401e-01 4.354106847512707601e-01 2.615559918012683172e-01 5.903489349881633208e-01 4.672229198180196663e-01 8.641174177520363209e-01 8.217839750263883358e-01 9.853022496584266099e-01 3.412697839273495237e-01 4.669842364308623983e-01 3.051915478088956801e-01 1.604329875996817201e-01 5.662494008007984414e-01 9.395166837555380956e-01 7.261991697833301007e-01 2.059495910062024704e-01 6.215411722340732359e-01 8.934708053369219138e-01 6.064492624241710761e-01 9.276371841908789273e-01 5.171971628917992891e-02 1.580827541465616992e-01 8.936026989553578215e-01 4.455801787879027920e-01 5.230138106835846568e-01 3.188611143355485344e-01 9.342140355661909812e-01 9.488835126465312575e-01 5.986242264945749181e-01 9.310002450941975427e-01 7.842585630534988361e-01 8.913016350814884081e-01 8.333413247037839700e-01 9.574043990755072286e-01 4.343345955301398664e-01 4.980618845329072286e-01 1.097914309839037594e-01 4.118266274747195421e-01 2.995371358065040956e-01 6.103394937063563175e-01 8.845333959513155264e-01 4.648850399585406912e-01 2.160756516864092980e-02 9.846262732804155204e-01 1.928207693343561013e-01 4.558087120259293190e-01 6.453311148342665282e-01 6.045993581693053232e-01 1.733460256823167178e-01 9.455109684791647151e-01 2.694804414505413970e-02 7.374183586831865034e-01
7.757482550186033388e-01 5.656516035032163048e-01 9.560105780913198403e-01 8.869042339090194016e-01 1.317098186854647190e-01 3.178682709685767271e-01 7.141222735344230355e-01 1.447455096408416519e-01 5.940179477970889410e-01 9.290864238684610754e-01 1.205326013369422133e-01 7.507732320970790241e-01 2.642593064841953776e-01 2.506390833555213193e-01 2.253396468160546728e-01 3.134882622324763890e-01 4.524302058614870781e-02 8.993887349415580212e-01 1.588213128826850840e-01 4.470914529918701419e-01 1.654376931319034849e-02 7.636942547929884695e-01 1.117173371723556574e-02 1.279239094162243351e-02 1.819756126576227429e-01 1.054905677645171513e-01 8.283788654341918134e-01 9.047100907649252566e-02 7.206866674789614846e-01 6.940918454571632923e-01 6.484283538617496845e-02 7.793457841968457478e-01 1.734376023308881187e-02 4.562032023227358124e-03 2.899355664473033389e-01 3.414864421133115835e-01 3.328077470384916969e-01 7.626551639634856494e-01 8.091172479273055496e-01 6.225134968817058745e-02 9.574898624971461825e-01 8.463910716607244700e-01 3.196885614530939890e-01 2.106127539047480957e-01 5.454136874778734434e-01 5.229725831047440376e-01 4.484562680159498438e-01 1.830493881814488910e-01 1.864736652025490438e-01 2.808855568706143391e-01 9.024296238303202156e-01 2.565864407830554805e-01 3.348480684743765368e-01 7.577746778509025782e-01 1.177157548390238562e-01 2.916920591434096766e-01 6.430598312090683999e-01 5.639778956563936685e-01 8.396150117719179962e-01 1.880075377035040907e-01 3.418147106191832263e-01 9.658671320891486500e-01 1.308649145885282250e-01 7.764440763274260693e-02 5.746286316710730313e-01 2.762720439912927928e-01 9.349715351735231605e-01 2.205414286662132906e-02 3.164656464260435786e-01 3.192115866263817159e-01 1.548332186202638905e-02 1.659765306314910926e-01 3.394806234120740784e-01 3.360550675947890920e-01 2.814225872902273995e-01 7.050645047938175480e-01 5.773588604597889029e-01 1.716070911083993344e-01 2.844462166183981955e-01 8.015947700767137585e-01 8.884827596021582785e-02 3.791437418742296117e-01 1.576291439168086006e-01 1.175970946502016279e-01 3.558266500557739631e-01 4.813018698997626466e-01 1.729063327035307296e-01 6.720300072089590016e-01 7.454945175027021254e-01 3.603947524684305570e-01 8.307363417735287303e-01 4.096601830536172884e-02 2.043433067942824755e-01 8.486812932456053726e-01 5.610027815928086969e-02 8.116322293098323648e-01 5.652637189046235688e-01 4.026837433798594601e-01 1.458423750222247461e-01 5.233916244613027180e-01 4.625712297616265678e-01
5.033707606878115026e-01 5.475844580799515970e-02 3.233348862239980859e-01 9.508413695078001826e-01 7.942114662205087550e-01 1.691245160185129714e-01 3.959399715712855761e-01 6.481590015567594287e-01 1.223712747850685956e-01 5.623611430316052262e-01 4.930852530656717470e-01 6.657260159194631211e-01 7.211048639694426221e-01 3.337132157568577506e-01 3.647705989182258302e-01 4.274587849725569599e-01 4.279767558863618593e-01 3.211735105774309318e-01 5.433252225575906369e-01 8.861839828658391038e-02 8.554527512467617889e-01 6.605461238076326680e-01 9.013780886739863885e-01 4.159660624275304253e-01 6.874788817394673623e-01 1.104694050571194408e-01 9.073740843544455537e-01 3.446660245551883550e-01 6.357929010595109176e-01 7.765156094752529992e-01 9.479097577332367131e-01 9.032247149437417910e-01 5.219880000556564870e-02 8.415291926357025831e-01 1.087925838165465509e-01 5.231059074790649355e-01 3.659817353189530609e-01 4.129179336058698135e-01 8.881729365078969707e-01 2.761218978346167141e-01 4.168609223309112100e-01 8.766581034965015284e-01 9.088590765948442174e-01 8.810979318132687865e-01 5.298458300336074123e-01 8.653970129408972145e-02 8.085415472857154784e-01 1.706558272232390205e-01 2.120958377752358848e-01 3.627986955229908217e-01 7.255023130300235490e-01 1.914398300457673674e-01 4.187172786929593826e-03 6.131683398785774397e-01 4.124354292258385346e-01 9.453507132045242400e-01 8.628890274075480260e-01 4.470527872887353205e-02 4.334894730940273000e-01 2.436279480818248633e-01 8.700087297801634145e-01 9.534338108862110417e-01 1.627204795670218473e-01 9.883742721632127193e-01 6.692085947401816837e-01 9.983942573281724409e-01 3.636381705443548773e-01 3.260714975874656751e-03 3.453885297602053983e-01 2.306977537921317545e-01 2.135123388504285291e-01 5.274973412023490349e-01 3.609768855661339426e-01 2.435649093859811876e-01 5.310109101687805477e-01 3.107998649127310387e-01 7.256312632966618326e-01 5.862078118073491551e-01 5.159585190426263512e-02 9.539214333148510194e-01 9.105792788786599701e-01 9.208271071174656264e-01 2.885382353446208636e-02 2.660443542852380938e-01 3.833314432963480511e-01 5.451610606940511250e-01 2.824554611471825627e-01 2.397665184794717241e-02 9.263267092415095050e-01 4.280977572084873062e-01 7.465013713792331140e-01 6.947949897103011807e-01 4.967930177735766506e-01 8.289170696889169854e-03 6.260417933664346180e-01 2.034942274446902566e-01 2.038511856703345559e-01 9.075779121241462910e-01 7.638862901770916425e-01 3.227427547463231905e-01 7.067617152733517427e-01
2.727316245602124933e-01 6.793030162888998857e-01 5.240502085265952292e-02 6.876333643659197081e-01 7.904361555736560963e-01 6.948818987427308747e-01 4.547510831278194221e-01 7.159717910725250656e-01 9.588653638744882857e-01 3.169300937669277118e-01 5.587738062849508802e-01 3.184373904031669866e-01 3.798344381659832791e-01 8.907994341004950023e-01 9.320664471851725086e-02 7.196699547315181800e-01 9.771503095799360938e-02 2.444585864521520158e-01 3.323506215078593229e-01 9.253431144774193484e-02 8.217557435190107062e-01 5.719292105720664710e-01 6.710202336003571189e-01 7.161137216259358951e-01 8.253151491374498550e-01 6.888512763558064522e-01 7.395950354900843182e-01 4.116287459906197155e-01 7.493879785691296425e-01 2.615994833340853365e-01 2.263666303764433341e-02 7.883037751646235769e-01 6.309624295347480150e-01 4.040921469416671741e-01 7.060944386117357086e-01 4.192653065981641891e-01 1.215643810529359881e-01 3.360943064916143141e-01 1.997273019232881364e-01 4.028706688579208883e-01 8.318750763170583706e-01 4.046964832276090940e-01 3.460974665862515121e-01 9.878589360996653523e-01 4.292916761304699236e-01 6.044146587607610588e-01 8.541436037555938388e-01 5.337283766483114089e-01 8.333982659865837306e-01 6.949500866348894412e-01 6.106285821260156732e-01 2.817260975328593764e-01 4.123114950928477018e-01 9.759246919757418315e-01 6.772476019940177894e-01 3.961647251924498292e-01 7.889006104046611956e-01 5.814610062093066301e-01 6.969203498048324175e-01 9.166257657316095875e-01 1.713982095029302766e-01 8.154711145862797439e-01 9.136484075542904426e-01 4.835658119344051764e-01 7.350295024010965461e-01 3.591463806041939044e-02 8.012050842644725668e-01 1.286301926016163444e-01 8.845180304224034007e-01 8.428281547107936422e-01 9.869154010369900476e-01 3.911714280316291870e-02 7.819532992363100732e-01 5.155381975322190780e-01 6.795187933744106790e-02 3.512361117334490412e-01 4.873528085669756038e-01 2.390945073353083483e-01 2.520359863293269997e-01 2.101627502941105785e-02 2.883904104031171922e-01 4.397485158945324546e-01 3.280385494188378104e-01 2.244659222379844499e-01 2.819545592828551772e-01 9.946145522094894664e-01 8.243971606470060776e-01 7.529828196769361437e-02 3.743567229042105149e-01 5.734578459616335167e-04 9.071327393457092603e-01 2.149125237818469980e-01 7.053277141134136619e-01 8.555567542378462731e-01 2.624447624208735563e-01 8.098514320031808822e-01 5.356907303391537090e-01 9.726865281847461020e-01 5.309249987613204880e-01 3.074801437048750863e-01 2.247934206250719047e-01
7.695564622396220411e-01 3.584837830605400733e-01 2.659129076923719692e-01 9.499103687397151274e-01 3.120962888748625153e-01 1.478829070650081734e-01 2.542337034344513969e-01 4.942163793623336465e-01 4.015352924367326937e-01 7.707016862915203603e-01 5.818657372263046357e-01 3.250699442198730083e-01 9.960918432528180766e-01 9.949314585619436491e-01 8.191198801838698307e-01 9.140242405596836761e-01 1.608156292106179830e-01 3.965543599506953232e-01 5.867734812531854027e-01 1.940358860750384107e-01 7.186667939472179967e-01 2.493747299890390901e-01 5.789911482512871688e-01 6.377522277852717414e-01 4.582261069789299590e-01 9.673413682091446253e-01 8.227111014268267963e-01 1.950522770685422236e-01 8.948100415240511918e-01 7.463180573516651206e-01 3.379747453996240214e-01 4.838660870970361572e-01 2.273470076489727543e-01 1.488137067506664080e-01 3.852631451426961062e-01 4.521938708159720655e-01 4.250547702961454677e-01 7.125365115343478273e-01 5.533679779804325793e-01 7.913094360380259484e-01 6.891072163410683071e-02 8.637072057626148380e-01 3.359205142803223243e-01 8.395300528209678204e-01 3.064759043313336484e-01 6.185286786642172352e-01 3.591441841233480314e-01 4.858707932859950285e-01 8.162053992010102066e-01 4.604028571255257551e-01 2.470174303250375347e-01 7.142563332993430159e-01 6.025742297821914395e-01 6.904714951439510084e-01 1.890752794277436033e-01 3.430977015147442799e-01 4.322778420788891962e-01 4.002367734503624597e-01 2.868780734956263290e-01 7.928062833191755754e-01 2.328487661133751274e-01 7.101340858172839887e-01 2.665498223936955124e-01 1.344749087388849018e-01 2.211545473938806294e-01 6.201450239077984650e-01 5.564087230123889727e-01 3.597417998304115461e-01 3.551174591344956610e-01 3.286103772617312568e-01 9.877651098962155762e-01 3.563319894797520870e-01 2.012251470020477440e-01 2.009326784866098947e-01 3.491240831624567997e-01 5.942028266881284049e-01 9.708550485145310827e-01 6.096116841925856011e-01 1.727047687293162825e-01 2.200069172653835725e-01 4.772690230107641263e-01 3.920844182434974901e-01 9.460599237503810599e-01 2.935476321489195461e-01 5.785872649681949031e-01 9.092834896929326005e-01 7.009327098614487328e-01 1.063064455817404053e-01 2.437941302019952516e-01 9.618105121701828741e-01 4.492616047644379940e-01 4.745343246054166686e-01 5.449065773358957587e-01 7.197520974661141269e-01 9.474292652759910283e-01 9.828800028573277947e-01 7.976633262511532152e-01 6.642053993120825561e-01 5.637319835102474475e-01 2.896748953744791022e-01 3.221382881428954681e-01
5.361637852633245327e-01 7.116279264605784860e-01 5.498606086505438695e-01 8.967967645798449183e-01 8.282516785391903502e-01 4.955434363845075962e-01 3.366354354748859468e-01 1.838742885795877635e-01 7.081068925355982202e-03 3.548838419352094986e-01 5.520387722395153629e-01 6.503804471215457461e-01 5.872892891826919648e-02 1.777690946113497095e-02 7.058668744908055404e-01 6.754571677524295881e-01 8.488535215091438380e-01 3.650751046267988187e-01 8.569365059122404649e-01 5.404035207344592973e-01 2.705901518649033166e-01 6.443913228305118146e-01 4.086545437498618760e-01 6.065322704961877420e-01 5.978075745433342192e-02 4.621024166633266317e-01 7.505320161066759699e-01 8.799242220385533608e-01 9.826936078379521211e-01 4.515650798662484977e-02 4.443652211906610194e-01 8.455578915460575384e-01 2.619598989533444833e-01 9.515926888589089083e-01 6.855100350116607455e-01 1.059548577267989122e-01 4.671453788685010489e-01 4.749993555024033531e-01 4.839174702677979667e-01 5.308705549966398207e-01 2.590718369165684321e-01 5.318971336557463125e-01 5.746570543154139177e-02 2.868319042257497786e-01 9.119311455261239763e-01 3.422957310537474429e-01 9.380471696833307949e-01 4.627073244398314245e-01 7.986946280741752391e-01 9.889250593451219817e-01 3.662851343693400707e-01 5.529247166394493096e-01 7.384909780913704314e-01 2.131062888132353450e-01 9.096893529374737719e-01 3.784760697011607666e-01 2.812220107509704192e-01 3.291930808601920555e-01 4.464988458671300675e-01 3.015985486489005662e-01 2.930977333597177825e-01 1.281478613723776583e-01 9.083990444385225960e-01 5.164835766557439589e-01 8.342168102030194099e-01 6.134043585693071954e-02 4.690627867754623148e-01 3.652114467814727705e-01 2.076241770748773474e-01 4.709060165644731732e-01 7.664327563842519009e-01 5.699077976130497714e-01 6.862084018802957486e-01 8.060662007489440839e-01 8.906034333393211266e-01 4.284190707278791033e-01 6.484788394407592360e-02 6.394692090971508813e-01 6.399326138433879541e-01 1.015519298557171490e-01 8.963195477096463915e-01 9.022497394704470652e-01 5.540967368341821464e-01 6.754289495502825424e-01 4.738553564035167254e-01 2.142911876143744898e-01 4.161975752949641505e-01 3.776150809278230325e-01 3.952362490566303510e-01 7.347832022568012711e-01 5.016675053388173211e-01 7.002572690970650937e-01 8.458164645202939091e-01 9.486324030995750833e-01 2.932937874223043861e-01 9.067834352690337107e-01 8.774145850011754177e-01 7.349166650180450899e-01 7.840053796843877709e-01 9.328011693864421972e-01 3.623700780036227531e-01
2.064701750216261233e-01 8.959530304778079435e-01 6.847865387329191700e-01 6.404722396284898700e-01 4.374668337841518539e-01 3.235088388097538958e-01 4.256992169111241120e-01 8.651068211755399417e-01 6.788089828634484846e-01 3.404012231922007858e-01 3.660947524194273495e-01 6.307011124619368303e-01 8.026631745122146944e-01 3.352082323779803641e-01 2.782237127496595130e-01 2.177642644600479294e-01 5.901638659914212326e-01 3.949060763126011064e-02 4.978441478759952910e-01 4.889007557982351093e-01 6.700229357572126121e-01 7.368055958434671648e-02 3.055295936425816983e-02 9.286003192159641983e-01 1.449366500430890881e-01 2.385482242354076687e-01 6.419261606021504640e-01 5.368903543644253373e-01 4.377092417889485443e-01 7.689741456820371468e-01 2.879686670874572751e-01 7.048265797618786799e-01 5.526304463088146379e-01 3.045630973222983595e-01 5.497946184270263714e-01 6.238753384044218864e-01 7.749632926019959234e-01 1.630598456598741919e-03 3.210633026520405275e-01 4.741419689095994761e-01 9.596417197788653652e-02 9.589549169101238002e-01 2.383027073805195073e-01 2.164487126265245420e-01 8.246901250672015182e-01 5.340474481144890095e-01 4.677202160976358103e-01 9.085751971725898324e-01 9.772320810984114203e-02 9.710981644216252207e-01 8.650588280505300265e-01 7.899927757145648322e-01 9.791816702562899932e-01 1.188664299249210243e-01 9.050564988974754144e-01 1.851925566600320927e-02 4.142676600039510992e-01 5.455561252431310182e-01 8.512744250386715672e-01 2.361223149270785804e-02 7.217714199207128090e-01 1.462362106048511468e-01 8.608471273439387561e-01 8.992984620397282969e-01 8.833124725090717444e-01 6.744857696028515592e-01 1.101330924574746017e-01 4.503020597082031395e-01 3.576824912580922611e-01 3.114377505796500634e-01 6.429379000178530035e-01 4.896850297181054579e-01 3.492738235309624795e-01 1.271719175369928623e-01 9.943321675482712507e-01 1.192029735911639410e-01 7.043536027458757731e-01 1.265167704049496855e-01 6.606413914762225836e-01 1.123573451649902966e-01 4.975166988143232549e-01 6.574776368548704841e-01 3.716998609920636465e-01 8.036630679964029689e-02 7.820017244968957559e-01 6.263956366335170500e-01 9.730744407496663140e-01 5.500710414192954145e-01 9.880078672667973461e-01 7.204405556837578661e-02 3.082487315385796789e-01 1.544723943588485193e-01 3.463016701449703749e-01 8.306695445963597768e-01 9.472270691350043181e-01 9.538860520459664372e-01 5.195447831947300754e-01 6.232617707466349133e-01 9.026876763097884115e-01 3.031150193454645869e-01 3.649693210897970719e-01
4.911647913322709780e-01 1.482109573039018802e-01 2.422750637288790809e-01 3.739756586387068538e-01 5.195619967798348338e-02 4.507426009291751745e-01 5.413407039668525211e-01 2.591542784570757263e-01 5.171474455469076137e-01 9.750390952510830100e-01 6.091080572231521995e-02 2.777088767361568511e-02 9.264176625817349686e-01 8.484825126021408037e-01 6.217328525005764162e-01 8.422883017299062081e-01 7.630990636526806536e-01 2.407308229128738430e-01 7.878348273093693788e-02 4.918779011214430286e-01 1.178983514437447200e-01 9.946203269021516302e-01 7.026080097956601822e-01 1.752566946605618181e-01 1.140170783281978517e-01 8.265751678305904848e-01 9.401898623090174656e-01 9.013014866802752101e-01 9.448098806236814307e-01 4.246960489686747442e-01 1.315890719990014945e-01 9.776987674833216291e-01 2.255229767804580732e-01 7.699009195436457009e-01 7.788370166535740768e-02 7.498106759786371533e-02 3.331647294714347174e-01 1.390697728202382466e-01 2.840576757803348062e-02 9.598297107210744805e-01 2.321571364959308381e-01 9.271716390759365822e-01 5.024480588128599212e-02 4.858472656283173707e-01 2.899144970184421854e-01 7.652742753042063306e-02 9.270149698569459806e-01 4.411467155661346062e-01 9.214085112673769951e-01 1.085877688315638467e-01 9.856767898282358109e-01 9.925398790143067362e-01 8.203331391301891262e-01 4.045068142030677771e-01 9.299171696042637381e-01 9.149834771451303972e-02 6.815577652610436132e-01 5.878620154451621449e-01 7.151642725306924797e-01 1.276354211169260511e-01 1.633219257594649143e-01 1.010830319650237730e-01 5.299353299551698981e-01 7.933760181392952582e-01 4.226686246182054241e-03 1.436144154127610983e-01 2.503449348771354943e-01 7.881132212857256958e-01 8.988662401846276850e-01 3.987186722013658091e-02 7.760271903283294526e-01 2.184155966029903695e-01 4.200551523346630622e-01 5.435752649370421130e-01 8.368464890965899849e-01 1.656311018019318571e-01 7.062324778019835048e-01 4.393288224464424463e-01 5.982832033450732334e-01 7.749055018786532578e-01 8.238611202552715840e-01 5.834651726574276998e-01 6.102099073540901975e-01 8.288920341627105115e-01 6.157105327846522647e-01 4.722225881857974317e-01 3.332393620975564463e-01 8.701929752581560873e-01 4.247471064210278646e-01 7.774959241072496585e-01 4.296592613315000087e-01 6.600656789895900101e-01 7.507834548145635445e-01 6.663594442856484168e-01 2.027910463850791656e-01 7.094370116779757929e-01 4.901673066493318354e-01 2.742694263755922623e-01 4.698501159477014300e-01 1.491126029651564933e-01 5.277117746893403849e-01
2.295990218519264880e-01 1.790250599779406038e-01 6.722790054984050245e-01 5.552513180281536398e-01 4.423890124852611905e-01 1.833092980800177241e-01 8.394407293762048416e-01 3.718733097425985790e-03 2.707018813196417906e-01 2.228936953802354015e-01 4.610117889643539080e-02 8.454721629235888436e-01 1.873736010373859839e-01 6.080225572693592762e-01 9.273438415414932967e-01 3.601157497772311533e-02 1.417356989504539033e-01 8.933486363427030064e-01 8.719724516711584439e-01 3.865624998899928055e-01 7.849149568368556373e-01 6.518233046909269746e-01 7.674894376888358183e-01 5.763978182865255873e-01 3.088491626746532326e-01 9.830887127845683304e-01 6.680235985697674517e-01 5.975891048125342442e-01 4.852754597957268379e-01 3.245565505969005837e-02 9.107442987223820507e-01 5.236628677443696533e-01 4.186354469694600899e-01 6.131025922328723343e-01 4.043473510478079458e-01 8.515513451930010191e-01 4.878332391689583769e-01 2.493375047090495844e-01 3.583800017871895394e-01 1.145868646961906157e-01 2.285128768697505253e-01 6.786775553089470225e-01 3.345865632870667072e-01 8.225664668179621941e-01 8.251057829862712412e-01 1.319116843026343355e-01 3.039247514028895480e-01 6.948344670114156019e-01 1.997118292307009657e-02 8.963562262013788917e-01 7.836123883497243536e-01 5.896482672548791770e-01 7.840107359493182493e-01 7.229079761248659031e-01 1.619818931670387041e-01 2.383076074263301702e-02 2.077334024803716428e-01 5.662414474972757850e-01 7.170326106711866210e-02 6.367138223396556773e-01 2.231913260963106493e-01 2.356219702842051733e-01 9.129202248838279576e-01 6.583698229409032932e-01 7.095209240965086872e-01 4.283484726861412906e-01 9.366007049421423147e-01 3.674967017777153178e-01 7.892838082443598413e-02 6.262508180838973759e-01 8.366033883673295035e-01 8.959982343810516392e-01 9.878965159223228598e-01 2.436669779987683526e-01 5.468266761004048071e-02 2.867630410387901341e-01 8.576150716272210595e-01 2.823439571352555078e-01 3.848276094144881254e-01 3.188971024401779930e-01 6.387680471917470681e-01 1.620477788471480496e-01 4.601458947685259648e-01 3.836627924539911527e-01 4.371327102936117814e-02 5.013354739086486322e-01 5.246937587328944774e-01 7.463876439694234755e-01 7.975676519079514248e-01 5.385206407873187606e-01 3.553028820448390634e-01 1.786754120021668557e-01 2.501415387025230919e-01 1.488409186822392538e-01 6.950666721755519584e-01 8.458872643109903722e-01 6.808743752106954927e-01 8.705910344300891168e-01 1.680756649189163454e-01 6.960507196884822001e-01 6.220722395553147654e-01
1.294287283537716160e-01 2.588885286486513060e-01 6.978994681900332342e-01 2.104218587399632190e-01 3.343229587901798139e-01 9.113150581755868895e-02 2.972077874769355477e-01 3.693922863326751793e-01 1.114361010083414483e-01 6.477307492708178627e-01 3.901062259353620387e-01 3.930100710832008515e-01 5.226810928447503946e-01 9.532981203849049123e-01 8.392115933813932838e-01 5.171532380596418621e-01 8.956075658717196353e-01 8.497742473994818191e-02 5.800490905742128334e-02 3.343739018457206891e-01 1.996521570890793518e-01 5.667199847325935513e-01 7.470573731275539364e-01 3.665321019843237327e-02 1.305745104788600397e-01 1.832837221690443164e-01 6.518416634852126634e-01 1.114080036909392835e-02 5.334609770924106931e-01 9.034086356756229064e-01 1.627584589906039270e-01 5.517090382357985323e-01 2.909039008164473472e-01 6.566189533489913410e-01 1.312128846010068850e-01 6.534731360524582700e-01 9.063120265180588664e-01 7.848908719929672539e-01 2.929096949996781163e-01 5.187503585200772260e-01 6.258342746401809320e-01 9.351771072882184566e-01 3.892968981999783695e-01 9.717605019391323262e-01 8.534732894371225287e-01 8.684968838455491280e-01 8.225079522812815958e-01 4.337054950886899407e-01 4.159709755071701043e-01 2.601511306714109351e-01 2.609098064889003865e-01 5.918112917558303598e-01 7.652856863033657975e-01 5.027046175947389450e-01 9.493106701318022589e-01 2.679346928736934252e-01 7.893260671599473532e-01 9.570827260697009065e-01 1.589817169023323151e-01 3.566787745479118588e-01 8.419237986553531616e-01 2.880900013789818859e-01 7.728927223816606240e-01 4.600463234451108718e-01 3.120139840979585522e-02 5.518222316719080256e-01 7.277122564888586220e-01 1.761073272660289568e-01 4.388302615275908591e-01 6.889439803836002740e-01 4.867708654548330571e-01 9.584735995363010685e-01 1.434740051029769203e-01 6.046280669035155597e-01 1.788944367426184012e-01 3.771451121535651652e-03 5.746408957276585294e-01 1.705017639050910860e-01 4.183788834479178487e-01 1.644291938268156450e-01 5.867610529637230510e-01 2.984886434121623022e-01 3.827423444100733763e-01 1.889005721972676355e-01 9.253728487390094903e-01 7.307339643596058032e-01 6.130258227291350837e-01 9.191218634237834362e-01 8.650675916605969906e-01 2.407772043207562218e-01 6.853986373723267578e-01 6.138937658163374778e-01 2.824329055700562918e-01 8.966078114288706935e-01 3.386007312221139820e-02 3.999367537822424712e-01 2.933255294955416925e-02 6.758404560747744982e-01 2.617650167568559283e-01 2.827589904520438902e-01 2.898812828938508446e-01
6.691998007358168632e-01 3.069242623220150845e-01 4.927383239274684135e-01 1.853291235528241598e-01 3.175899179029096908e-01 6.172845302863705363e-02 9.613051809275344750e-01 1.737267127478357986e-01 9.487944222443145392e-02 5.469399492270013985e-01 6.004981394280182183e-01 3.672425591307499904e-01 2.499717758789656852e-01 4.393614742837338438e-01 8.400723022315695898e-01 3.464500561293055725e-01 6.117098253246913142e-01 6.615214490221855703e-01 3.868978737579191751e-01 2.223919108182391691e-01 5.959150560195011215e-01 9.234859629509291068e-01 1.256701317428902120e-01 9.071286054173720581e-01 9.474323466910211655e-01 5.294447327236427858e-01 7.205860073055319059e-01 3.035401307314431474e-01 5.332179470431763768e-02 3.996824328330443876e-01 4.099983154447628397e-01 7.968429596379901225e-01 8.739321994898157087e-01 7.639275599284117702e-01 5.840456770154206501e-01 8.338831775838755345e-01 1.149630648903074981e-01 4.212348685157829564e-02 8.139930917803790411e-01 7.853446548107809733e-01 3.890137488000000587e-01 3.673906090645290279e-01 5.690884473623506468e-01 8.208824828715838295e-01 3.999083591890151279e-01 1.734980675042386844e-01 9.153064564620794208e-01 2.635021836067580336e-01 5.755748952853253497e-01 9.223825042998162749e-01 9.988869609107399183e-01 9.305221679773404420e-01 6.188648341402119835e-01 4.312795545202890990e-01 4.277097061465164884e-01 7.693085356142598252e-01 6.476878336773337352e-01 2.703055649342304134e-01 8.404346906237248893e-01 3.479598804505888987e-01 2.352245210020952326e-01 3.860494650540190475e-01 3.145858509865842034e-01 5.758330141372612898e-01 1.907201259660317172e-01 1.284288901071861666e-01 6.932904899390623932e-02 3.614171465879502110e-01 4.935107621251492160e-01 6.823074137901739000e-01 8.202356931133173434e-01 6.028549932786753107e-01 2.355691680108495945e-02 1.804300215302546695e-01 8.219248187211193324e-01 8.140547340441265378e-01 3.004537553883727119e-01 8.381592911984599992e-01 5.427205325531300195e-01 8.459582017355311567e-01 1.736295980246623794e-01 8.827752590148191247e-01 5.773938998551685353e-01 5.146314580932891403e-01 7.572402755340812419e-01 3.067048772279312718e-01 1.570984758137250470e-02 5.634036276854188507e-01 1.960853708376716353e-01 5.287769667248806149e-01 8.345080637421129488e-01 9.336059100303951697e-01 2.686072953250919770e-01 5.265527213266740780e-01 8.298990081886196135e-01 3.722078175071222850e-01 6.521593310264799381e-01 3.971665580924770289e-01 7.505516567570297282e-01 9.273592562441004272e-01 2.193283541972316231e-01
7.896305339646526589e-01 3.849377494762948881e-01 8.653395914412885803e-01 5.506507078439425440e-01 3.076659973255004843e-01 3.881490324402896430e-01 1.133452467496418592e-01 6.304972376960784608e-01 7.957775797275945528e-01 5.507576062534407235e-01 5.275262917626238890e-01 3.762315363709105576e-01 5.067945637405584236e-01 4.923800963702241740e-01 4.580239992579269170e-01 5.375672805707966129e-01 1.267012843233210617e-01 4.254002446531679471e-02 8.329463027630146232e-02 6.492032793902827725e-01 9.827761879338536843e-04 8.292201759057069577e-01 4.488173817354520478e-01 7.495204105333883593e-01 9.005621412069426679e-01 4.275612266567502262e-01 8.781599548257809085e-01 2.859146079704206755e-01 1.048198281584464819e-01 5.156007429878786130e-01 7.380182207093666236e-01 1.506949469562638422e-01 7.340002500008736552e-01 1.655744834005337118e-01 2.438809284250089693e-01 3.633164459648601241e-01 9.736901705480938141e-01 8.514693798823994575e-01 4.893046111509907758e-01 1.988912112979358549e-01 3.700131086485485277e-01 1.650324328395575968e-01 1.010898309438371667e-01 2.855728250985409833e-01 7.259311514148586442e-01 7.918814955544719592e-01 9.412727941592863301e-01 6.060721797056096705e-01 1.016899993600933749e-01 8.160952224587061377e-01 7.604586451090613597e-01 1.953626322291677209e-01 7.198497125508551697e-01 2.379374156803613083e-01 3.211342910324103128e-01 7.313410160730423604e-01 5.451891234112873352e-01 4.095703927718122861e-01 2.657095465809844459e-01 2.514452235979169892e-01 7.506585433918803174e-01 3.563299754596068736e-01 8.354409289867884558e-01 8.584618229073616158e-01 8.261512878725020270e-01 4.107324139778565364e-01 2.952480479486260245e-01 4.973610246197224249e-01 3.097024126708388669e-01 1.209867788678942180e-02 2.528026165830800087e-01 6.511253178914135908e-01 5.890022587572142365e-01 5.078225533338265318e-01 8.120666970223155978e-01 3.136934273788705152e-02 6.038215430130760009e-01 2.569004656658143704e-01 7.909422463787570967e-01 1.279150775173105714e-01 1.287427025611099785e-01 6.340197492293009329e-01 3.559490534696986286e-01 6.735481701819538980e-01 8.444783417462419228e-01 4.887695822478483887e-01 3.563359244908745893e-01 2.074747666200731366e-01 5.365362907680032434e-01 3.153700436715467514e-02 8.741451310448545842e-01 2.540601604604497687e-01 5.377398598804693508e-01 7.442003504704634009e-01 9.128438515461622105e-01 6.476022441950435304e-02 4.956355649185707479e-01 9.324076201805509001e-01 1.373275723168112528e-01 4.633411794609560985e-01 9.694734334402110854e-02
2.978132645574421700e-01 4.124982081716778159e-01 9.560375985034116342e-01 8.758230644792955877e-01 4.881610685742258093e-01 8.922506769924491987e-01 4.943444886877901290e-02 9.265702419194760120e-01 2.989400978065291925e-01 1.982254909368759144e-01 5.843514105494738153e-01 4.872021139427175074e-01 9.520494468716277359e-01 3.942452273781649197e-03 5.278574662627113501e-01 1.649783827414076365e-01 5.257946965331853351e-01 2.959429835583637924e-01 7.983349902937028064e-01 2.452903242334434353e-01 2.650260005957260079e-01 3.450116532017382109e-01 1.359560841955551602e-01 1.810957408545973424e-01 7.726303895536001942e-02 7.665099136893841481e-01 8.680167185520714090e-01 1.158285935492031626e-02 8.484737698027466912e-02 2.996338274301807436e-01 9.022073831969430469e-01 8.987500974945996646e-01 5.642148217606491878e-01 5.198035722649279045e-01 1.467654051003500770e-01 9.646723267446996042e-01 6.554270438130360699e-01 3.698504113845804131e-01 2.436653747897620237e-01 4.089699794828912660e-01 2.936189287800371472e-01 2.359582944623870304e-01 7.473057622936133404e-01 6.626715404117009545e-01 2.907031210302802871e-01 6.643415122779360305e-01 4.733076985335977760e-01 5.773049474642288903e-01 4.346586823624450924e-01 5.604809771121463946e-01 5.984317365461371274e-01 6.795393488984411423e-01 4.292345995075663723e-02 1.907135863187234825e-01 4.475577920048200431e-01 8.897309226796912274e-02 8.449164475148207565e-01 5.758787272403023128e-01 4.725798160305828555e-01 9.106661172939645166e-02 7.332703565473195351e-01 8.281211586292215321e-01 9.336607898171982445e-01 8.599579211518605382e-01 3.523519249454378777e-01 6.006912119052276733e-02 2.668220966537836469e-01 4.532192903142530094e-01 7.933873341363035792e-01 9.342112429133588858e-01 5.153992937546328923e-01 8.009135412248921115e-01 4.274675683758216715e-01 1.059239505845046558e-01 2.906536207807735028e-01 8.460668484689147784e-01 5.675338149745984273e-01 2.642900421131333388e-02 4.599638705224038393e-01 1.106525314892211620e-01 6.755942850289042845e-02 1.473747075094695713e-01 2.564566248899174949e-01 8.912206084352793933e-01 9.846070386443901423e-01 9.543270351294114162e-01 2.577397405845989198e-01 8.088056217794830083e-01 6.187043462601407029e-01 1.928154605799068388e-01 8.151858608891522362e-01 2.101744845094511982e-01 1.613593688411610882e-01 5.828766970452291529e-01 2.455494863325731192e-01 7.759569090575670902e-01 7.500685343810495898e-01 6.307406692285678629e-01 7.017363896869865947e-02 6.323412183936057973e-01 8.345152121153034397e-01
3.532565331444950107e-01 8.838737763189510321e-01 8.390994680095431590e-01 1.379061336835121221e-01 6.884250248741844436e-01 9.427834054596890834e-01 3.658735372642123451e-01 3.975858457356247211e-01 7.433691881498856180e-01 5.558926470995541047e-01 4.341983129833751898e-01 6.885381136342841879e-01 1.114437126538728728e-01 2.771113993778515638e-01 3.613325235561879456e-01 5.390957017407422835e-01 1.816386747932710044e-01 1.724956532448960189e-01 6.359680904442286398e-01 5.923773107571508323e-01 4.152137878293296058e-01 1.200167596952166349e-01 1.912562258250029013e-01 9.111700942266591774e-01 9.382400351781778891e-01 2.213540142439583969e-01 7.984565049318699259e-01 2.199198589581808916e-01 6.540034271099582908e-01 4.501563091695581775e-03 8.009953454334891587e-01 4.082075259079256391e-01 9.335367504552742890e-01 5.020993292263453700e-01 4.883420416414752108e-01 4.164560864056088274e-01 2.444274422338549302e-01 7.040813824842933055e-01 4.208494221061613860e-01 9.151877255364833097e-01 5.764727360961652280e-01 6.228033874520162438e-01 8.574687578786056585e-01 3.970313356981487463e-01 6.504746792133843103e-01 9.652597223783467850e-01 9.653166476990869826e-01 4.995273250272284082e-01 1.819601382605431361e-01 9.119316272448407812e-02 5.419695833232271998e-01 3.124683452893074476e-01 3.089345795161757557e-01 3.703711900586034167e-01 3.400854654581135783e-01 7.321306094772814799e-01 7.603383087998456524e-01 7.499398555635717889e-01 8.464501090882853296e-01 8.972275427005313997e-01 5.910148524726207553e-01 2.083373370825134518e-01 5.895766508577606757e-01 7.168668137691136533e-01 8.683559498712365432e-01 5.533231596081411574e-01 4.054726636566320375e-01 2.618755126665036626e-01 8.153896741459659703e-01 3.814460689295003926e-01 8.324982950926421710e-01 7.259489546011949068e-01 2.876884723494986806e-01 8.356177768998285238e-01 2.204652476990065502e-01 8.692961654659319137e-01 3.299476475995917202e-01 5.220006335082371107e-01 9.388760108293348061e-01 7.339761681346802513e-01 1.279852298840309377e-01 3.883190322036966791e-02 7.384996252959667995e-01 1.589722010865544100e-01 7.354733090203332546e-01 8.260176975166017010e-01 8.917089870514257610e-01 9.952475400783850068e-01 1.915562322130430761e-01 9.988447221045773095e-01 4.432100208828114729e-01 5.840490531729434220e-01 6.784449533686388589e-01 7.163690684821392152e-01 3.457735238601455929e-02 9.392738782240366291e-01 4.327673005003299656e-01 2.294315705934321103e-01 1.172938474227591676e-02 5.189266940682514262e-01 3.614820093187713912e-01
7.868734002178229270e-01 7.132820957233866332e-01 4.163863850697853142e-01 7.462785929263936469e-01 1.228258508738249155e-01 4.305322428639435373e-01 6.710211203080744813e-01 1.156505838650935258e-01 7.065381904134750979e-01 8.646660604054199339e-01 5.361810115010383626e-01 9.459663625960532674e-01 2.916247989366231863e-01 1.518742056427322407e-01 6.044296488889752128e-01 4.592445548743375738e-01 3.783325624754529937e-02 3.947389984212730241e-01 1.144315479852276995e-01 9.281627278579537288e-01 3.816992125271677638e-01 4.786513996812631344e-01 1.904100488238503752e-01 3.009364919938921634e-01 1.920582529587651077e-01 2.121051455116467199e-01 6.709658688580995012e-01 9.662314308115006467e-01 1.546848331570552793e-01 1.710420777127175107e-01 6.335390762317126834e-01 8.252947521455508140e-01 4.606862133455443820e-01 7.850612085131903894e-01 3.903608098795550152e-01 8.388553777693896762e-01 2.921889294456193609e-01 6.113290915491238486e-01 6.482555520165074192e-01 1.988608386789414428e-01 9.145478199864692792e-01 3.057423080629557699e-01 8.951704226489566318e-01 5.031984246826316509e-01 7.187706316304339760e-01 3.008130406531139833e-03 7.921458124161184777e-02 7.024995177397719281e-02 3.374705079354872739e-01 6.410946627762028616e-01 7.572400924165126890e-01 2.256612483305396877e-01 9.884332356428680022e-01 6.890337556355144999e-01 7.517826021217276500e-01 7.136561779705357100e-01 1.331430918625013948e-01 9.596069624278796839e-01 7.298199780646320578e-01 9.801564309631233263e-01 7.213006311425116390e-01 3.534010328504703091e-01 5.724187302814521816e-01 4.379205253734058667e-01 8.128599343831486301e-01 3.678265653981606098e-01 5.990974147262118077e-02 1.710574542984877322e-01 4.004252189053736366e-02 4.190617479538075729e-01 3.255954274780078483e-01 5.151854376067459551e-01 1.430947806661608812e-01 2.149012802661285360e-01 4.813362956295031969e-01 5.791868665132837712e-01 2.162979650061442882e-01 1.798368950536782807e-01 1.529235593815468919e-01 8.514346638597550809e-01 5.818616013714769108e-01 6.992300887753536420e-01 8.702945380974934642e-01 5.248724738318336636e-01 9.056558063129072078e-01 9.740467234630871829e-01 1.648999972119404855e-01 7.074828831463746415e-01 2.667394036773471644e-01 9.622915189095584410e-01 2.614293835049831261e-01 8.169630745819737028e-01 8.685465266837685272e-01 7.687840852774406875e-01 5.110518260669091317e-01 2.485317809201053052e-01 8.121407560077508192e-01 1.092502542181685854e-01 5.310944171904758981e-01 7.911729304859682621e-02 3.487973351921147547e-01
8.799292052833620481e-01 2.323096728431333080e-01 8.195769705132367466e-01 7.208196896156038314e-03 2.710893315848476037e-01 4.278643945364215551e-01 9.374284044358462964e-01 6.312547337336195108e-01 8.781851850473662013e-01 3.992690530497661205e-01 1.005405999364010761e-01 2.781069794314087185e-01 1.884938370988378242e-01 1.138538117626941570e-01 9.575553240863423632e-01 5.973063574834018841e-01 1.212433773109430346e-01 4.998867138430737045e-01 4.226289300046193187e-01 7.194823489628331403e-01 8.323690071516792743e-01 6.768988209900596020e-01 6.922813420586018118e-01 5.222163707711230396e-01 4.077056127508675853e-01 4.975717755912737461e-01 3.836876722512656546e-01 9.865444453446090556e-01 6.634241603839874379e-02 2.567353829004279664e-01 6.559411723840583575e-01 6.313092188459530352e-01 2.685760524584808184e-01 5.768327049870066725e-01 4.301837368835356168e-01 2.364237646650713121e-01 8.631816874662172623e-01 3.049509939588636032e-01 7.187021352021634168e-01 2.657251073989799206e-01 4.456673474857167916e-01 3.669258469893603714e-01 9.798346802453905546e-01 3.714659571584810749e-02 7.405452438800239623e-01 3.309684121454590233e-01 8.687208156975734230e-01 4.043010342943851310e-01 5.561579823044321413e-01 6.788905314332507324e-01 8.109757508929349434e-01 3.751265483289789593e-01 5.298920931952152413e-01 8.433878460194910165e-02 7.410671434050781770e-01 3.851885005998362255e-01 3.633151807599811489e-01 7.581542182295526455e-01 7.326376968719615634e-01 1.775143904612532797e-01 8.083456468870181544e-01 4.282080944035352443e-01 5.092435914268119701e-01 7.927903184689696348e-01 3.686002518749552648e-01 2.443380587354948563e-02 9.134523588594506416e-01 7.946907830507687898e-02 3.553532471061945364e-01 2.785233852043034197e-02 6.394580208608622307e-01 5.275753955532316297e-01 3.269817048318098829e-01 8.344934613266290491e-01 4.856014687546670316e-01 3.737135352628579987e-01 4.439838665598402345e-01 2.411540671513181522e-01 7.921568425386105172e-02 8.035347687973639630e-01 4.493060163864870393e-01 7.211489756153550701e-01 7.730802682443038698e-02 8.187735972553324970e-01 3.335389044558006999e-01 6.623732182234554067e-03 3.936215167941661264e-01 7.030973859151189442e-01 1.768155002734064229e-01 2.268286354978865660e-02 9.138132388968227549e-01 3.033960113835300065e-01 9.740430148017170664e-01 1.914019343515152016e-01 1.445302015550160579e-01 6.535404238649838993e-01 2.241508370605950207e-01 1.884660108006305235e-01 9.605999782763186001e-01 9.127324607462438122e-01 6.859557014361625793e-01
7.765095622979337753e-01 5.987029357961184406e-01 7.497859644724358397e-02 5.570552763879632607e-01 8.176125753562819565e-01 2.364085185774662534e-01 7.115211981201802205e-01 2.681342804202290209e-01 3.921812273530678183e-02 1.171194470023534384e-01 4.616025444574800574e-02 4.749284016892534321e-01 1.692514597014930233e-01 6.263455104326015599e-01 5.367216270435529735e-01 9.668593503160571867e-01 7.020447402825809036e-01 2.011441404463464311e-01 9.236457364896686340e-01 8.670023750613354840e-01 6.658182672027489479e-01 3.762038533651396177e-01 8.491190002852004870e-01 6.262224014195560962e-02 3.800592329708024630e-01 8.297172037775620845e-01 2.208995147311748619e-01 3.428859086936248968e-01 3.598942654160751653e-01 8.003221283887838045e-01 2.180846914669976044e-01 5.760339207443259113e-01 3.853750131584829930e-01 5.317451470312563044e-01 7.611329853825252734e-01 3.872790326586847964e-01 3.925640949487986253e-01 6.347388400410425291e-02 6.197539485749086197e-01 3.339674015720268674e-01 8.145802139576102663e-01 5.531995999101992911e-01 4.380529807742897797e-01 7.996451212291534327e-01 6.634859385289905154e-01 9.628625026851822533e-01 3.434220522468034442e-01 6.426184945069846055e-01 3.643548898719540796e-01 9.699608009794791208e-02 9.325562853764814975e-01 4.572832528840730104e-01 9.829020223028095415e-02 9.397817486524928654e-02 1.473320363846656322e-01 7.885390978328812306e-01 9.674279303791685214e-01 6.710849220221825062e-01 6.219653759427323791e-01 2.465020014432430795e-01 3.658532033901865654e-01 4.606037774354528880e-01 8.442055556388246007e-01 5.903814599292497300e-01 1.451097390290428946e-01 5.090055543331255539e-01 2.831442669359195419e-01 8.122012016667370382e-01 2.710508202584906989e-01 2.118235662982418388e-01 1.822509625683864654e-01 6.884630578184655070e-01 5.018616921841069223e-01 2.896623254099387479e-01 1.592325355952650678e-02 6.542101234601167548e-01 7.795468304892895217e-01 6.105998437951959401e-01 1.700816055894777135e-01 3.905199112729429434e-01 3.139036715506334785e-01 8.887374632386376705e-01 5.204276820818423133e-01 4.729067466110972173e-01 8.792289865647270330e-01 4.114526494891659336e-01 5.047448343699616480e-01 2.415476777006583253e-01 6.036380158696471598e-01 3.416418253961442941e-01 4.599884901323681996e-01 8.079749669493977438e-01 4.722574643212607004e-01 8.855925789142292670e-01 4.574173881912586559e-01 7.971136298949844656e-01 8.508535650189538169e-01 3.347777086078326247e-01 7.891631180381978306e-01 4.654822494815181733e-01 1.839834588104648505e-01
7.595723758521910618e-03 7.167921590855524938e-01 7.488804316204246136e-01 3.752384933954561186e-01 9.340714430537814250e-01 8.544732964131385167e-01 1.807018247470358885e-01 4.532328457222366547e-01 5.770497869575224037e-01 3.301053878348234605e-01 9.669855305144311464e-01 3.560865548195152330e-01 4.726888323723974494e-01 1.930037755348329442e-01 4.044880647453467093e-01 2.699434224961286821e-01 4.249307324734141744e-02 2.425526332967835597e-01 3.691278734747956980e-01 4.453685429702453069e-01 3.920673271818306826e-01 6.191019746104827748e-01 3.546949018962408662e-02 6.238584720071846945e-01 5.123200496809970916e-01 4.610429138547410544e-01 3.631041499289237029e-01 4.183239288608626705e-01 2.570164014801330499e-01 5.635131076514713344e-01 4.419735620671935150e-01 7.176365650900132787e-01 1.922495463188057530e-01 8.249049493912656850e-01 1.670571064568392439e-01 7.140559440957150450e-01 7.163876364966927923e-01 7.196426441593746226e-01 2.443464673694439870e-01 5.480036495864554213e-01 9.984954919893527236e-01 8.395598496122654852e-01 4.771688081983289642e-01 1.386642012364062149e-01 9.169644128788723147e-02 7.147280250539017610e-01 5.717640228630316290e-02 4.241142652536543656e-01 5.396845998089749852e-01 4.985874069252438368e-01 3.444867851566059125e-01 9.862634735649127293e-01 1.478539048501007480e-01 7.094898514125724809e-02 8.560518112825714621e-01 7.103009061981148120e-01 8.960844982692482974e-01 7.726942028235344040e-01 3.053172199141155341e-01 5.764416254352897617e-01 1.733565439696393984e-02 2.476078487237789449e-01 4.822641508113746367e-01 7.211358480351988121e-01 2.754922107663615449e-02 9.366375745363231253e-02 6.493301428049229607e-01 8.779558837256054016e-01 8.891882383014727553e-01 6.469651923333075150e-01 3.450667346229421284e-01 1.074248411306070183e-01 8.278275539467472299e-03 9.948188794883189301e-01 5.625367978775079880e-01 7.332532065719707948e-01 1.145541431584683467e-01 8.979540609258606088e-01 8.590829689297574401e-01 4.330706124507713861e-01 7.855888939355371026e-02 7.847246537996603877e-01 9.246192928876586503e-01 1.734553585753005889e-01 1.662142494928342540e-01 4.693701990249544709e-01 1.570919009097216934e-01 7.991950741902487110e-02 9.505242394128852190e-01 8.401390816618525825e-02 6.796691658059060837e-01 4.428878804128836277e-01 2.614777878703319347e-01 2.614361267598289684e-01 1.097268277817415871e-01 6.296582679705972074e-01 4.371810248148825240e-01 2.278608336939523804e-01 3.605795371296266483e-01 7.715157379109648383e-01 3.272060730735127931e-01
4.409613823585053494e-01 4.829335457900598705e-01 5.624601455814081108e-01 7.434000464874725989e-01 1.939798020986864824e-01 2.652342188982458326e-01 2.983217869728798100e-01 2.514040172474372170e-01 7.667370417846633979e-01 8.649412994685523604e-02 7.075442088076222547e-02 1.218012590239547777e-01 3.136051862326982853e-01 9.417330937011457737e-01 2.632707720122887673e-01 2.730779401373251147e-01 7.367298260185142222e-01 6.338144466459971760e-03 3.114492541017949145e-01 1.492643297855584805e-01 1.447383394758625652e-01 1.102160231273415780e-01 7.432562174635427565e-01 5.209916918872207203e-01 3.467574764807049847e-01 5.128455183533902062e-01 7.263817336549083237e-01 7.420794971665189976e-02 4.844599653095795766e-01 3.211213900010874145e-01 6.975744448459572089e-01 5.723867907170266944e-01 7.187508605033448017e-01 8.384529112721461619e-02 3.533959341243477770e-01 8.756481192168565908e-01 1.060890660651033768e-01 4.691194173565800263e-01 7.364328107504399812e-01 2.549553119816760915e-02 5.417188443720030167e-01 2.266070934372429457e-01 2.522979666071527571e-01 7.243995869027607393e-01 3.085174470968258253e-01 6.348844236251294237e-02 6.853402525401227630e-01 7.646037393892328726e-01 8.570690370327017638e-01 9.237887690687462960e-01 7.711366866821379729e-01 5.224950941217241240e-01 5.017254714232116664e-01 3.738863889544473684e-01 2.617176399726456326e-01 5.655995310500496753e-01 3.485072682108518727e-01 2.972162971027900724e-01 8.920910752950438338e-01 8.884092041338956802e-01 6.841840612280670753e-01 7.005633344145465458e-01 4.998111526430389917e-01 9.803399277085677044e-01 9.702960269073647170e-01 4.741444370479097614e-01 3.010509180590893452e-01 4.246143311556129785e-01 8.778688194263817302e-02 8.874270474527836683e-01 7.700921900307203805e-01 4.515774108611286808e-01 2.636750187885987806e-01 2.491806274694796652e-01 3.089922114291014932e-01 3.467461373589267870e-01 4.016546442509857373e-01 7.987943379692560297e-01 3.362291887224441167e-01 5.618431022512250239e-01 5.884474406324629037e-01 1.242949356470790523e-01 1.327775612007862094e-01 1.664039143561972800e-01 9.607993062374350357e-01 8.416322554786902499e-01 5.621156533404101374e-01 3.572805083807429893e-01 3.200555904933973794e-01 6.537767496454860439e-02 3.020092206616773467e-01 4.245937328043313252e-01 3.963115880866986407e-01 4.658455439012056942e-01 7.368888580680043043e-01 2.087020067955944747e-01 4.509897070012311993e-01 4.516576280923175757e-01 5.811490863622821301e-01 1.268438155713651483e-01 1.549186667772501913e-01
2.284441356240137777e-01 3.783434845872375440e-01 6.685185674950090418e-01 4.548443146918969004e-01 5.237937563652053097e-01 8.269858536461968113e-01 2.999848744704542991e-01 8.692352323589571661e-01 6.018800116213340878e-01 7.701150250514360307e-01 8.519168812873638696e-01 7.572215936138892989e-02 5.916723241369209463e-01 5.832440762756603281e-01 1.204905442617633105e-01 7.074689618363003696e-01 1.323006185814098457e-01 8.532018324983600133e-01 8.021209362912697927e-01 2.113996325833160661e-01 6.972647128425223384e-01 8.592249998678057610e-01 4.139533322344357558e-02 6.281552382360829911e-01 5.295481359107846453e-01 3.112844152340416004e-01 3.526678815915067489e-01 4.927314329297867168e-01 7.163433167226573861e-02 8.665231290108499351e-02 9.794226119564526378e-01 3.536756965726406410e-01 2.062425051181183688e-01 8.547704508206577234e-02 6.763961028874936332e-01 4.772838264518978191e-01 3.221353101381553286e-01 9.262204569469016935e-01 9.090137065213794720e-01 1.035656522771564170e-01 3.887558373002265588e-01 7.182943456777505231e-01 3.334544546264466280e-01 6.673530249436054884e-01 8.372302236913322648e-01 9.953739835789986445e-01 5.273501194214895715e-01 5.526640903332384891e-01 3.245064759464263426e-01 2.432344562372323882e-02 3.729259995991071053e-01 9.816239613155032240e-01 4.873068639322150064e-01 7.980322882153044750e-01 1.705123855158336976e-01 2.480759923580055926e-02 3.887409465730002900e-01 1.001801117544491859e-01 4.386605236756959680e-01 7.665355079772706581e-02 1.435029684983416542e-01 3.608810118392089539e-01 4.255254572808294666e-01 1.891225046475465410e-01 4.445625689361021315e-01 7.236499520011836495e-01 5.689267361557910352e-01 8.698561988139341672e-01 5.407553959337519922e-01 9.829765941359775994e-01 5.939652451465043947e-01 2.600667645613978785e-01 3.862139051287534208e-01 7.116950281937571843e-01 6.215633782328856549e-01 2.183139773439007891e-01 3.770495103322712982e-02 5.307098412055536452e-01 2.795645561630513143e-01 1.589169695267251825e-01 4.585358894133921837e-01 1.156399089191215701e-01 3.513109789332435895e-02 4.255489220730684918e-01 3.187655192117323510e-01 6.841984879612936776e-01 1.538376017224745151e-01 9.601780809724949073e-01 5.282614010114361491e-01 7.859647810913410471e-01 4.661343361691889786e-01 8.205378617243634931e-01 5.254243461624650280e-01 1.426224007561615048e-01 7.562125202919752764e-01 8.871256916841729900e-02 6.396631147382834115e-01 2.525964551873061126e-01 9.868526166882717332e-01 9.622980811565616799e-01 4.417843668045865479e-01
4.687365614583928197e-01 9.624922125662224159e-01 1.809239110242966131e-02 4.477011030451485407e-01 8.044765101978461619e-01 9.788390024913455889e-01 7.504361077346648479e-01 9.006720661486028456e-01 3.400340704710753670e-01 5.990402364796363344e-01 7.293250677558771322e-02 4.525905615732839227e-02 1.189516404117685333e-02 4.544675444335821712e-02 1.835264808995413777e-01 8.345707787630333163e-01 9.515083880028827323e-01 6.313879348778377310e-01 1.603691599077676777e-01 4.988045326081493869e-01 1.584643102887508537e-01 8.665010423049754884e-01 7.602811578448551710e-01 5.008850804413235158e-01 3.947499742588157501e-01 8.958750374933635019e-01 3.577793676257268185e-02 7.153570292383230056e-01 3.985386278390551373e-01 3.336922997075103536e-01 9.141009610827911525e-01 6.570320648074027270e-01 5.565633625894530478e-01 8.775974374384383214e-01 2.437025538755082099e-01 8.943715205543353308e-01 5.802189140075806328e-01 1.070194494053464673e-01 7.691092258743853494e-01 6.317477440801610999e-01 2.894956232997893952e-01 5.226185062534616232e-02 3.356751025314735903e-01 7.335740692983651057e-01 5.778449641890458510e-01 2.931257726604998837e-01 2.504580445556590096e-01 2.858936837673972109e-01 6.473472092827047275e-01 1.112355168043910325e-01 9.343451841903979149e-01 6.154229048719824791e-01 6.295505708136073242e-02 1.157552569564439526e-01 5.701712836763891401e-01 2.498248031575498462e-01 2.891487551779050591e-01 4.920005833150835617e-01 3.703559235836086927e-01 2.562677231178982495e-01 9.905490449789949858e-01 1.881510697248568453e-01 2.510940388973518234e-01 7.319876220678306344e-01 4.838610715693376640e-01 5.705730505099301242e-01 4.071746391322749181e-01 2.678693346076810311e-02 6.147979169021416945e-01 2.814454915330206752e-01 2.467446944292885913e-01 1.931068808898143141e-01 5.123221958058642445e-01 2.982929960397124880e-01 5.833059531329524150e-01 8.240190613766761318e-01 8.763828044854413690e-01 4.778472365754153905e-01 2.268717948491451031e-01 6.568423154571457756e-01 4.452201469076363383e-01 8.659203147757765784e-02 2.928257123939697060e-01 8.459829576743329582e-01 6.080376522665295047e-01 4.670883714958794508e-01 6.618947352205115653e-01 7.268129759122121669e-01 8.684580264505223912e-01 7.570214389808371802e-01 9.077044018075314247e-01 3.633118722716857096e-01 4.445560985729923864e-01 7.907921546125972201e-01 5.164644590192648543e-01 4.757358845245538426e-01 1.247045147875174287e-01 1.189579756906271601e-01 5.592202114347111230e-02 8.494649108252041447e-01 9.692753813287169340e-01
7.028753086189415411e-01 2.773418727925216487e-01 5.463496990527504371e-01 6.633721595518460301e-02 8.848723911108458129e-02 8.872971420928532638e-02 8.101085243951696713e-01 3.078325418880223374e-02 4.037830629296764728e-01 7.743171409744339373e-01 3.191715747307508622e-01 8.532628492106987261e-01 7.918148025727581585e-01 7.698872907806965094e-01 8.499594674699600949e-01 8.413590253041138833e-01 2.053528067297014648e-01 4.022243391963891135e-01 6.393220460891193557e-01 4.188477694444681099e-01 4.762547888624146797e-01 6.463387101587809713e-01 4.142177748850026653e-01 6.146699771704644544e-02 5.126901879282844687e-01 7.281434976970448947e-01 8.210249368573697692e-01 2.901526971100327756e-01 4.633318577666071247e-01 3.582991364864234196e-01 3.863653645674269832e-02 2.160151134719209276e-01 7.596919979539364931e-01 2.086000159805675436e-01 5.287269811702380862e-01 6.222832221791980700e-01 8.807348192491808447e-01 2.227016778644232975e-01 2.731989090825893696e-01 3.873757374304354073e-02 3.189794359848052707e-02 5.872952994175784092e-03 3.325231674148400041e-01 7.873163277867163412e-01 6.534903083778391686e-01 5.893264853753370502e-01 4.343956230318630762e-01 5.194461608897049665e-01 5.436528469929008400e-01 1.258787042814911716e-01 8.955941353735092925e-01 1.368731015787779670e-01 2.406158088585997890e-01 4.094006312337582498e-01 9.289664110948476772e-01 9.077192827303507405e-01 5.347309814334060274e-01 7.025982538432613556e-01 8.553973621775523561e-01 2.696401806567504389e-01 8.251531434853029978e-01 4.697101518873822990e-01 1.620162299184687571e-01 9.705966788117617039e-01 8.375302167280940235e-01 8.864390219726206999e-01 3.106065639268339451e-01 8.643030877445495586e-01 6.532317038505720541e-01 3.816686352852350916e-01 7.651749103333127522e-01 7.743047317438733756e-01 8.416305143167610581e-01 3.973431520083489099e-01 6.720038332714183271e-01 3.778115854082388925e-01 8.060916770358447225e-01 6.399756594324301773e-01 3.278460197126554787e-01 3.702942458961905325e-01 8.869699779877794343e-01 5.744286363341356560e-01 7.208154573331005954e-01 1.793297363168965264e-01 4.200647691754139101e-01 7.448449331597120082e-01 1.962763814308623456e-01 9.768706712730541586e-01 7.012746051853747664e-01 3.735452654670212702e-02 3.614424337772313978e-01 5.977087190197593047e-01 2.767561557773635661e-01 2.608549981127781248e-01 5.570805869784918318e-01 2.148305065022860783e-01 5.485735319667437437e-01 6.102510063397172946e-01 5.855368996243336399e-01 2.550273984358270019e-01 6.289413103909519132e-01
4.302584973388534628e-01 3.682178724011353488e-02 5.976214069697575182e-01 8.799807675513743321e-01 8.329934567044614546e-01 1.708170713532987106e-01 7.309924275629554602e-01 5.045796762527887669e-01 9.587189627369976375e-01 1.948919545797868080e-01 6.121610984864234162e-02 7.291668027007857100e-01 8.548396303345410230e-01 8.379882298484919723e-02 6.363877511696083289e-01 6.829572403015093940e-02 5.019037588577565101e-01 8.475229517703796178e-01 7.437752783072680840e-01 4.623167357000728117e-01 7.246001469806294670e-01 2.903089642750386057e-01 4.955854370817622812e-01 5.841544148170355610e-01 5.333347384732277652e-01 4.322550011296947270e-01 6.349082179114251545e-02 9.698335629441057204e-02 6.649475483085208749e-01 1.482783381617669427e-01 8.702309511495665006e-01 4.622471334934267206e-01 5.358974658396198354e-02 6.186602054642130755e-01 4.834482313674927090e-01 7.170534581406736718e-01 1.358862599191681397e-01 9.692864845953180764e-01 7.558746057603739077e-01 5.656408191290557275e-01 1.535120367632636373e-02 4.340752390787698811e-01 9.965586930339966898e-01 8.124881234207536052e-01 4.025145527708605675e-01 4.086856682983062150e-01 6.510116278092739073e-01 5.557416844163919345e-01 4.157118247401520028e-01 4.462124583540194589e-01 7.372107677870487485e-02 6.618485704359717836e-01 1.691731565376503044e-01 1.583206228597019427e-01 8.909441082226321473e-02 2.394016888964242140e-01 3.873987003248723360e-01 8.070244168301087262e-01 1.854487067756841467e-01 3.558884119027327930e-02 1.622784745087949565e-01 9.157626026455767398e-02 6.708149127593256988e-01 8.665460339096143771e-01 6.795618326485090011e-01 5.472542094225071319e-01 8.697832062005722564e-01 9.942267843984965436e-01 6.524537357650959102e-01 3.833187542258611469e-01 9.873442706071596797e-01 4.387206958835652149e-01 4.725071944396487256e-01 3.572461308192602658e-01 1.933278590318396883e-01 8.669884195535902949e-01 7.986319678994847626e-01 8.367060829964841906e-01 9.941004852006996018e-03 8.443191847427462537e-01 6.628747895323032768e-01 5.365048819940181346e-01 2.583101723346588052e-01 4.538830969475829979e-01 7.497206881451430327e-01 2.505994510493302352e-01 7.461637859651107929e-01 9.180815300961542302e-01 2.490188088763192198e-01 4.350515246284247795e-01 5.085838226313480481e-01 7.987306698489153867e-01 6.848256328535998749e-01 6.177087650686441389e-01 7.339157465104166889e-01 6.419364390919024554e-02 2.823544863012403816e-01 8.283229125138809046e-01 7.010323716624665691e-01 6.798191388050413009e-01 8.664965968287454690e-01
